1.021512746810913086e-01 -7.823206484317779541e-02 6.747247278690338135e-02 -6.475729495286941528e-02 1.288233548402786255e-01 -4.381658136844635010e-02 9.617281705141067505e-02 -9.996791929006576538e-02 -5.574383214116096497e-02 9.823841601610183716e-02
1.636870950460433960e-02 -1.177491545677185059e-01 -1.557300239801406860e-02 -9.024685621261596680e-02 1.698499545454978943e-02 -8.867532014846801758e-02 -1.661283671855926514e-01 -9.468963742256164551e-02 4.505007062107324600e-03 -6.146849482320249081e-04
-5.763844773173332214e-02 -8.589565753936767578e-02 1.270783990621566772e-01 3.685393184423446655e-02 7.251509279012680054e-02 -1.112852320075035095e-01 -5.835146084427833557e-02 3.598419483751058578e-03 2.688207477331161499e-02 -1.725137233734130859e-02
9.550020098686218262e-02 1.505241841077804565e-01 1.258502714335918427e-02 6.072723120450973511e-02 -7.637777924537658691e-02 4.538667947053909302e-02 1.570500247180461884e-02 7.530747354030609131e-02 -1.265037059783935547e-01 3.682390600442886353e-02
-3.364821895956993103e-02 -3.786636516451835632e-02 1.169587522745132446e-01 8.411274850368499756e-02 -5.346984043717384338e-02 1.235045678913593292e-02 5.083452910184860229e-02 9.338445216417312622e-02 3.542727325111627579e-03 -9.693305939435958862e-02
4.526172950863838196e-02 2.451151423156261444e-02 -4.010012838989496231e-03 1.928213424980640411e-02 -1.439204663038253784e-01 2.364159747958183289e-02 -1.235782802104949951e-01 5.689555779099464417e-02 -2.769930846989154816e-02 -3.896907344460487366e-02
7.724775373935699463e-02 1.946450397372245789e-02 3.674687072634696960e-02 4.161857813596725464e-02 -6.698073446750640869e-02 -1.693067839369177818e-03 9.698192588984966278e-03 -3.222862631082534790e-02 -3.588263317942619324e-02 -1.319328546524047852e-01
-1.731367595493793488e-02 2.474416978657245636e-03 -9.965815395116806030e-02 7.371561974287033081e-02 -1.714793294668197632e-01 9.521713107824325562e-02 9.853871911764144897e-02 -1.266411393880844116e-01 9.341936558485031128e-02 -9.693267941474914551e-02
-1.070578098297119141e-01 -1.232682168483734131e-01 -1.112441197037696838e-01 8.794064074754714966e-02 3.203143179416656494e-02 9.409940987825393677e-02 -4.605986922979354858e-02 -1.029036268591880798e-01 3.664490953087806702e-02 4.124787449836730957e-02
-7.588084042072296143e-02 4.401030018925666809e-02 -9.228831529617309570e-02 -4.275954142212867737e-02 3.898196294903755188e-02 -2.733600139617919922e-02 8.606100454926490784e-03 4.230632632970809937e-02 7.919915765523910522e-02 1.489927154034376144e-02
2.571246027946472168e-02 -9.016882628202438354e-02 -5.821609497070312500e-02 1.219349913299083710e-02 2.182297036051750183e-02 5.323730036616325378e-02 8.271204307675361633e-03 4.013719037175178528e-02 -7.559903711080551147e-02 2.354118478251621127e-04
-1.636162698268890381e-01 6.737745832651853561e-03 2.409152127802371979e-02 2.491890080273151398e-02 -5.808177217841148376e-02 1.069082599133253098e-02 7.697367668151855469e-02 -1.383275538682937622e-01 -4.676986858248710632e-02 -4.563317820429801941e-02
6.133276969194412231e-02 6.526850163936614990e-02 -1.813417300581932068e-02 5.398158729076385498e-02 -1.097866967320442200e-01 6.836792081594467163e-02 7.932431250810623169e-02 -6.741109490394592285e-02 6.709658354520797729e-02 4.284781217575073242e-02
7.704492658376693726e-02 3.994446620345115662e-02 4.776347801089286804e-02 5.470745265483856201e-02 9.759127348661422729e-02 -1.093651261180639267e-02 6.026340648531913757e-02 -8.117918670177459717e-02 7.626267522573471069e-02 -9.895566105842590332e-02
6.703307479619979858e-02 3.799357637763023376e-02 -3.313826769590377808e-02 4.642383754253387451e-02 1.178395301103591919e-01 -1.054917126893997192e-01 -1.159023270010948181e-01 -2.462904527783393860e-02 1.225974634289741516e-01 9.135702252388000488e-02
8.957343548536300659e-02 -7.891988009214401245e-02 -9.312959760427474976e-02 4.536346346139907837e-02 -1.458666771650314331e-01 6.824683398008346558e-02 -3.612018749117851257e-02 -6.993289571255445480e-03 3.272921964526176453e-02 8.323965221643447876e-02
1.020817235112190247e-01 -1.380582749843597412e-01 -8.993219584226608276e-02 8.299136906862258911e-02 -1.403591036796569824e-01 6.555513292551040649e-02 5.466707423329353333e-02 -7.799182832241058350e-02 7.768964767456054688e-02 5.352516844868659973e-02
2.829582430422306061e-02 -8.898205310106277466e-02 3.224427625536918640e-02 -1.493927277624607086e-02 2.668149396777153015e-02 -1.207412853837013245e-01 -8.622840046882629395e-02 -4.841573536396026611e-02 5.270986631512641907e-02 3.162558004260063171e-02
2.636683732271194458e-02 -1.440424192696809769e-02 3.057675249874591827e-02 4.263010248541831970e-02 4.550004005432128906e-02 3.101543895900249481e-02 -1.170357540249824524e-01 1.117689833045005798e-01 -9.501475095748901367e-02 4.161396250128746033e-02
-1.179489940404891968e-01 1.057556793093681335e-01 4.902470856904983521e-02 -4.107697680592536926e-02 -1.371168494224548340e-01 2.407490648329257965e-02 4.862664209213107824e-04 2.829874493181705475e-02 -9.493983350694179535e-03 -2.272571772336959839e-01
-8.357387781143188477e-02 1.038211062550544739e-01 6.545185297727584839e-02 2.757983095943927765e-02 -3.985331859439611435e-03 -7.560852449387311935e-03 -1.343663036823272705e-01 5.535896867513656616e-02 4.911364987492561340e-02 -7.474005222320556641e-02
-1.597145050764083862e-01 7.526769489049911499e-02 4.720035195350646973e-02 4.292623698711395264e-02 -4.916433990001678467e-02 1.138847135007381439e-02 -5.856534838676452637e-02 7.265383750200271606e-02 2.640858106315135956e-02 -1.396388560533523560e-01
1.409839373081922531e-03 -4.261773079633712769e-02 -3.091008961200714111e-02 1.173003315925598145e-01 9.383165091276168823e-02 1.743401214480400085e-02 7.858820259571075439e-02 5.506931617856025696e-02 -9.983871132135391235e-02 -3.382045309990644455e-03
-1.346668601036071777e-01 8.526229858398437500e-02 6.073360145092010498e-02 6.320019811391830444e-02 1.284889038652181625e-02 9.661111235618591309e-02 8.090057969093322754e-02 -1.096436232328414917e-01 8.663800358772277832e-02 -1.044929623603820801e-01
2.019188832491636276e-03 -1.903158426284790039e-01 8.234486915171146393e-03 -1.269338466227054596e-02 -1.309985518455505371e-01 4.618068411946296692e-02 -9.674353897571563721e-02 3.893558681011199951e-02 -1.265050470829010010e-02 -1.301941871643066406e-01
-1.544946338981389999e-02 -8.647601306438446045e-02 1.078000143170356750e-01 8.879690617322921753e-02 -1.135164126753807068e-01 -7.020886987447738647e-02 -1.041004210710525513e-01 -1.218614652752876282e-01 3.179066628217697144e-02 -4.599459003657102585e-03
1.959955878555774689e-02 5.668744072318077087e-02 3.004492074251174927e-02 8.020091056823730469e-02 -1.115917488932609558e-01 -3.302872064523398876e-04 -1.643195897340774536e-01 6.469028443098068237e-02 -6.713633239269256592e-02 5.612016469240188599e-02
-4.139796644449234009e-02 -2.000123262405395508e-02 -7.072891294956207275e-02 -1.213067094795405865e-03 -6.201348151080310345e-04 -4.904091730713844299e-02 -4.854164645075798035e-02 -2.095049992203712463e-02 5.337481945753097534e-02 -6.481613218784332275e-02
1.513722259551286697e-02 9.197934716939926147e-02 -5.036532133817672729e-02 9.478939324617385864e-02 -8.967153728008270264e-02 -6.222287937998771667e-02 -1.641988158226013184e-01 4.249323904514312744e-02 6.262280046939849854e-02 -6.109159067273139954e-02
-5.575602874159812927e-02 1.040025148540735245e-02 -6.464383006095886230e-02 -1.483016908168792725e-01 -9.973335079848766327e-03 3.780888020992279053e-02 3.608497208915650845e-04 -1.535731256008148193e-01 1.961117982864379883e-02 -1.826154440641403198e-02
4.662061110138893127e-02 1.047651376575231552e-02 6.075185164809226990e-02 -2.093569636344909668e-01 1.030717641115188599e-01 2.679428644478321075e-02 1.027334481477737427e-01 -1.113079581409692764e-02 -7.577610015869140625e-02 7.346262224018573761e-03
-6.000330299139022827e-02 -9.491184353828430176e-02 -1.544038206338882446e-01 8.242255449295043945e-02 8.866911381483078003e-02 7.273051887750625610e-02 4.344740137457847595e-02 -5.579164251685142517e-02 4.160116240382194519e-02 9.710326045751571655e-02
-1.688416004180908203e-01 3.988808766007423401e-02 -1.179058477282524109e-01 6.941886246204376221e-02 1.222209781408309937e-01 -9.112117439508438110e-02 -6.063505634665489197e-02 9.803170710802078247e-02 2.285857126116752625e-02 8.943682909011840820e-02
-7.162825018167495728e-02 -3.786352649331092834e-02 -7.385942153632640839e-03 -6.034385040402412415e-02 1.063415706157684326e-01 -7.480520755052566528e-02 2.056305110454559326e-02 4.070860892534255981e-02 6.744705140590667725e-02 5.334483087062835693e-02
-1.020064353942871094e-01 8.066159486770629883e-02 -1.171353608369827271e-01 -8.540360629558563232e-02 9.199612587690353394e-02 2.854667603969573975e-02 -1.322117298841476440e-01 1.492142956703901291e-02 5.885168537497520447e-02 7.629846781492233276e-02
-1.342026889324188232e-01 7.323733717203140259e-02 -7.165242731571197510e-02 3.112592548131942749e-02 1.277770753949880600e-02 8.850792422890663147e-03 -5.524510517716407776e-02 -1.138212531805038452e-01 -4.119902476668357849e-02 -4.797752480953931808e-04
-5.031714588403701782e-02 1.150720864534378052e-01 -2.559803798794746399e-02 -1.077478080987930298e-01 5.885453149676322937e-02 -1.126905158162117004e-01 4.035160690546035767e-02 -1.110606491565704346e-01 -1.307955384254455566e-01 -8.700416982173919678e-02
9.787006676197052002e-02 7.682999223470687866e-02 -6.652254611253738403e-02 6.842708680778741837e-03 5.294570326805114746e-02 -1.385719180107116699e-01 5.254894867539405823e-02 -4.044137429445981979e-03 7.556970417499542236e-02 9.753009676933288574e-02
-1.516101136803627014e-02 7.638238370418548584e-02 1.190214306116104126e-01 -1.636342890560626984e-02 9.891360998153686523e-02 3.272279351949691772e-02 -6.248687580227851868e-02 7.842588424682617188e-02 -1.322906613349914551e-01 8.234792947769165039e-02
7.517554610967636108e-02 -2.622457966208457947e-02 -4.124110564589500427e-02 1.915623806416988373e-02 2.695950865745544434e-02 -8.085558190941810608e-03 -1.184400096535682678e-01 1.780224777758121490e-02 -1.196785643696784973e-01 7.338973879814147949e-02
-3.108851052820682526e-02 2.171657979488372803e-02 3.409901261329650879e-02 -6.789650022983551025e-02 -4.168591648340225220e-02 1.224625017493963242e-02 -1.267762184143066406e-01 5.118459090590476990e-02 4.783089086413383484e-02 7.054971903562545776e-02
1.101699098944664001e-01 7.110240310430526733e-02 -1.663546264171600342e-02 -3.807556582614779472e-03 -5.412783939391374588e-03 7.015613466501235962e-02 3.374677896499633789e-02 1.984985172748565674e-02 9.371474385261535645e-02 -1.009648367762565613e-01
3.015298210084438324e-02 1.357300113886594772e-02 -1.894785016775131226e-01 -1.101073473691940308e-01 2.491967380046844482e-02 -7.708162814378738403e-02 4.575072973966598511e-02 -6.955163925886154175e-02 4.455037042498588562e-02 2.298597060143947601e-02
1.676691323518753052e-02 -1.916954666376113892e-02 -8.211705088615417480e-02 2.892753481864929199e-02 -1.119298562407493591e-01 4.679557308554649353e-02 -5.686179548501968384e-02 2.664228901267051697e-02 -1.102960705757141113e-01 -9.219818562269210815e-02
5.390741303563117981e-02 3.348118066787719727e-02 1.340139191597700119e-02 2.854301780462265015e-02 -1.460655406117439270e-02 3.921417146921157837e-02 4.547712206840515137e-02 -5.001141130924224854e-02 4.926010966300964355e-02 2.587508410215377808e-02
-4.390156269073486328e-02 8.138374984264373779e-02 -3.732237219810485840e-02 -1.537290066480636597e-01 8.968830853700637817e-02 1.826845668256282806e-02 1.101569086313247681e-01 -8.452982641756534576e-03 9.534986317157745361e-02 7.634691894054412842e-02
-1.318316608667373657e-01 -1.866271719336509705e-02 -3.432787582278251648e-02 9.052862413227558136e-03 5.011916533112525940e-02 1.330020930618047714e-02 -6.015487015247344971e-02 -9.849991649389266968e-02 5.145046859979629517e-02 7.449884712696075439e-02
3.940201550722122192e-02 -3.151265904307365417e-02 2.092988789081573486e-02 -6.441349163651466370e-03 1.959638483822345734e-02 2.224954962730407715e-02 6.515534222126007080e-02 9.594092518091201782e-02 -1.771335452795028687e-01 -4.144990351051092148e-03
3.960157558321952820e-02 -1.860331743955612183e-02 6.616737693548202515e-02 6.121114641427993774e-02 -1.628084806725382805e-03 -1.542208045721054077e-01 -9.285537153482437134e-02 4.310041666030883789e-02 9.642701596021652222e-02 -9.166721254587173462e-02
-4.698062315583229065e-02 -9.433728456497192383e-02 -5.019658058881759644e-02 5.345828458666801453e-02 -1.581783592700958252e-01 -7.357008010149002075e-02 5.760191008448600769e-03 -2.695433795452117920e-03 6.209636852145195007e-02 3.342884778976440430e-02
6.414563860744237900e-03 -5.211876332759857178e-02 4.106186702847480774e-02 7.350879162549972534e-02 -3.852887824177742004e-02 5.074637010693550110e-02 -5.025177821516990662e-02 6.631433218717575073e-02 -1.499828249216079712e-01 3.731945902109146118e-02
-1.093973666429519653e-01 7.289519906044006348e-02 -4.411871731281280518e-02 -4.701981320977210999e-02 -1.348664462566375732e-01 2.822818607091903687e-02 8.946915715932846069e-02 6.626131385564804077e-02 1.699236594140529633e-02 -5.375780165195465088e-03
-9.304258041083812714e-03 8.137635141611099243e-02 -7.677749544382095337e-02 2.515031956136226654e-02 -1.338089108467102051e-01 4.763213545083999634e-02 7.471043616533279419e-02 -1.204108148813247681e-01 5.567297339439392090e-02 -4.513404145836830139e-02
7.271507382392883301e-02 8.173914998769760132e-02 -7.156260311603546143e-02 -1.231529340147972107e-01 8.423372358083724976e-02 -3.333495557308197021e-02 -1.885872706770896912e-02 -4.502365365624427795e-02 3.377142548561096191e-02 3.608752787113189697e-02
9.246686100959777832e-02 -1.077604368329048157e-01 -7.502169162034988403e-02 -7.539920508861541748e-02 -3.767728805541992188e-02 1.453848741948604584e-02 4.377764463424682617e-02 -2.193753048777580261e-02 6.698501110076904297e-02 -5.732524394989013672e-02
-6.604694575071334839e-02 -3.516542539000511169e-02 1.913939230144023895e-02 8.699309825897216797e-02 3.046533651649951935e-02 -1.098857596516609192e-01 -7.783274166285991669e-03 4.616194218397140503e-02 -1.855754293501377106e-02 -1.515731867402791977e-02
-5.898026376962661743e-02 -6.805772893130779266e-03 5.171312764286994934e-02 5.286751314997673035e-02 -1.712485551834106445e-01 -1.152679026126861572e-01 -5.709598772227764130e-03 -1.721365004777908325e-02 3.297223150730133057e-02 -1.459622979164123535e-01
-1.523705385625362396e-02 8.661919273436069489e-03 -4.788190126419067383e-02 5.020722281187772751e-03 6.294220685958862305e-02 1.109401732683181763e-01 9.604260325431823730e-02 -1.359767913818359375e-01 -1.301677376031875610e-01 1.365615613758563995e-02
8.785068057477474213e-03 -4.955010488629341125e-02 7.392987608909606934e-02 8.058252930641174316e-02 -1.674349755048751831e-01 -1.345332711935043335e-01 -9.436400979757308960e-02 6.127170845866203308e-02 7.681386172771453857e-02 1.182603742927312851e-02
-2.893975563347339630e-02 8.226622641086578369e-02 -5.702722072601318359e-02 -2.108259312808513641e-02 3.879423812031745911e-02 -1.845849156379699707e-01 -5.836683884263038635e-02 -4.572532325983047485e-02 3.163091093301773071e-02 7.337377220392227173e-02
2.719823271036148071e-02 -5.690136924386024475e-02 1.087543889880180359e-01 -5.021920055150985718e-02 -7.209139317274093628e-02 -1.564559340476989746e-02 -1.289674937725067139e-01 -1.386630162596702576e-02 -6.856977008283138275e-03 -1.732282191514968872e-01
-2.352817915380001068e-02 8.663365989923477173e-02 -8.220460265874862671e-02 -1.135554816573858261e-02 1.459781732410192490e-02 -9.482384473085403442e-02 6.958103179931640625e-02 8.159789443016052246e-02 2.981759048998355865e-02 6.234933063387870789e-02
2.345135807991027832e-02 -5.933275818824768066e-02 -2.806675434112548828e-02 3.735969215631484985e-02 -1.164465770125389099e-01 -8.013746142387390137e-02 1.778441667556762695e-02 5.288574844598770142e-02 -4.655456170439720154e-02 7.196278870105743408e-02
-7.948904484510421753e-02 -3.884719312191009521e-02 2.424574829638004303e-02 1.157353073358535767e-01 -1.124301478266716003e-01 -4.201603308320045471e-02 -8.446189761161804199e-02 7.637254148721694946e-02 -3.886149823665618896e-02 -4.844252765178680420e-02
-9.949138015508651733e-02 -5.202958732843399048e-02 -9.424570947885513306e-02 3.876764327287673950e-02 -6.695719808340072632e-02 7.420653849840164185e-02 -7.273451890796422958e-03 -1.086669862270355225e-01 6.012559309601783752e-02 3.421612083911895752e-02
-1.093929167836904526e-02 8.145672082901000977e-02 -1.218092069029808044e-01 -3.330489248037338257e-02 -3.330938750877976418e-03 -8.899025619029998779e-02 3.901154175400733948e-02 4.626124724745750427e-02 -7.518918812274932861e-02 6.260770559310913086e-02
-6.583425402641296387e-02 -7.036110013723373413e-02 -6.712672859430313110e-02 1.651464588940143585e-02 -6.847616285085678101e-02 4.632491245865821838e-02 -1.106139048933982849e-01 -5.087848380208015442e-02 4.809054732322692871e-02 4.529293999075889587e-02
-1.027681976556777954e-01 2.607492357492446899e-02 -1.917370222508907318e-02 8.546832948923110962e-02 -3.802891448140144348e-02 7.579237222671508789e-02 -1.728884130716323853e-01 -1.711884327232837677e-02 6.519613415002822876e-02 6.325926166027784348e-03
1.176183484494686127e-02 9.662177413702011108e-02 1.134894043207168579e-02 6.826797872781753540e-02 -7.349626719951629639e-02 1.325790653936564922e-03 -1.908899396657943726e-01 1.753185875713825226e-02 -9.675074368715286255e-02 4.707935452461242676e-02
2.701698243618011475e-02 4.855808988213539124e-02 -1.329126674681901932e-02 1.133655160665512085e-01 8.693699724972248077e-03 1.092393845319747925e-01 -1.107549387961626053e-02 9.656267613172531128e-02 -1.497210115194320679e-01 3.321526944637298584e-02
-9.667746722698211670e-02 -1.023830100893974304e-02 -1.378619521856307983e-01 4.699798300862312317e-02 5.221064388751983643e-02 -1.110826898366212845e-02 -1.872065663337707520e-01 1.723920740187168121e-02 2.095712162554264069e-02 7.722508162260055542e-02
-4.101284965872764587e-02 1.323008388280868530e-01 2.802529186010360718e-02 -4.575590416789054871e-02 -1.560968253761529922e-02 9.469886869192123413e-02 1.031149625778198242e-01 -8.528362214565277100e-02 7.353304326534271240e-02 -3.284447640180587769e-02
-2.563000423833727837e-03 -2.951554208993911743e-02 1.025351658463478088e-01 -4.316382110118865967e-02 1.015001311898231506e-01 3.063712455332279205e-02 6.424268335103988647e-02 7.347911596298217773e-02 7.208462059497833252e-02 -6.287429481744766235e-02
-9.750214219093322754e-02 4.137638956308364868e-02 -7.768735755234956741e-03 -5.111271981149911880e-03 3.269759938120841980e-02 -1.096870377659797668e-01 -9.029129892587661743e-02 1.044930052012205124e-02 -4.614765942096710205e-02 -5.269861966371536255e-02
7.206192612648010254e-02 -4.318402614444494247e-03 5.191566422581672668e-02 5.607125535607337952e-02 1.422506198287010193e-02 -7.436910271644592285e-02 -4.148418083786964417e-02 3.857661783695220947e-02 7.681134343147277832e-02 3.099959343671798706e-03
3.086389228701591492e-02 2.825910411775112152e-02 -1.133209615945816040e-01 -4.498275928199291229e-03 2.678911574184894562e-02 -2.380208857357501984e-02 -1.721180528402328491e-01 5.249584093689918518e-02 -9.489984065294265747e-02 4.142853990197181702e-02
-1.763764321804046631e-01 5.066675320267677307e-02 1.526647899299860001e-02 -8.639933168888092041e-02 -2.434469759464263916e-02 -1.297278143465518951e-02 -1.530020032078027725e-02 -6.225634366273880005e-02 -5.036357417702674866e-02 -1.250690221786499023e-01
5.910563841462135315e-02 1.875948859378695488e-03 7.240960001945495605e-02 1.020078882575035095e-01 -1.064229160547256470e-01 -1.056002750992774963e-01 6.859561800956726074e-02 -3.020304813981056213e-02 1.676358096301555634e-02 -1.870235353708267212e-01
-1.007883995771408081e-01 7.127037644386291504e-02 -1.259123682975769043e-01 4.881197586655616760e-02 9.817288815975189209e-02 9.874897450208663940e-02 -1.244927421212196350e-01 6.128364801406860352e-02 8.066516369581222534e-02 5.153647065162658691e-02
4.298770800232887268e-02 1.072954107075929642e-02 -1.498578768223524094e-02 -8.508730679750442505e-02 5.542965605854988098e-02 4.517192393541336060e-02 -3.962920233607292175e-02 1.145225670188665390e-02 9.439907968044281006e-02 4.812766239047050476e-02
2.228660881519317627e-02 -2.828130312263965607e-02 -5.081710219383239746e-02 6.258849520236253738e-03 3.728659451007843018e-02 2.938927337527275085e-02 -9.403157979249954224e-02 4.339791834354400635e-02 -1.339691318571567535e-02 1.280520707368850708e-01
6.324721872806549072e-02 -6.287659704685211182e-02 3.435899689793586731e-02 -7.484608888626098633e-02 7.006099075078964233e-02 7.500202208757400513e-02 9.358447790145874023e-02 5.388032272458076477e-02 4.849925637245178223e-02 1.082206238061189651e-02
-1.047948449850082397e-01 9.173925966024398804e-02 -8.927601575851440430e-02 9.855301678180694580e-02 3.236339986324310303e-02 -7.117477804422378540e-02 3.895026817917823792e-02 8.150046318769454956e-02 -2.130360528826713562e-02 -6.868561264127492905e-03
1.610302552580833435e-02 -1.641946379095315933e-03 7.369092106819152832e-02 1.187596842646598816e-01 -6.326601654291152954e-02 6.717199087142944336e-02 -4.975046217441558838e-02 1.060909628868103027e-01 1.551986392587423325e-02 2.755265869200229645e-02
8.191496133804321289e-03 -3.081613592803478241e-02 4.755731299519538879e-02 -5.295924842357635498e-02 -6.724289804697036743e-02 -1.564824022352695465e-02 7.425712049007415771e-02 -8.999671787023544312e-02 4.680355079472064972e-03 -2.349219843745231628e-02
-7.983731478452682495e-02 3.754055127501487732e-02 -2.619763277471065521e-02 -2.315959893167018890e-02 5.395797640085220337e-02 4.416199401021003723e-02 -1.069613322615623474e-01 3.753893077373504639e-02 -3.602539375424385071e-02 -5.502843111753463745e-02
-1.635530218482017517e-02 -2.025885730981826782e-01 -1.239935532212257385e-01 -3.339084098115563393e-03 1.187198515981435776e-02 6.097467988729476929e-02 -9.025377780199050903e-02 3.837064281105995178e-02 5.003057792782783508e-02 5.188412219285964966e-02
4.880427569150924683e-02 5.283768475055694580e-02 -1.186936497688293457e-01 -2.142365835607051849e-02 4.303460568189620972e-02 6.535295397043228149e-02 5.382550507783889771e-02 -4.994222894310951233e-02 -1.066509634256362915e-01 -7.203458249568939209e-02
6.062745675444602966e-02 -2.157863229513168335e-01 -6.114773079752922058e-02 9.031665395013988018e-04 -1.067719981074333191e-01 4.781375452876091003e-02 1.883011870086193085e-02 6.229561194777488708e-02 -7.040350139141082764e-02 -4.781318828463554382e-02
-6.803459674119949341e-02 -2.923646010458469391e-02 5.720076337456703186e-02 9.024731069803237915e-02 -8.108842372894287109e-02 4.710821062326431274e-02 -1.254873424768447876e-01 -2.806971222162246704e-02 9.372451156377792358e-02 4.238374531269073486e-02
-4.446166753768920898e-02 4.929480329155921936e-02 3.645741194486618042e-02 5.313562974333763123e-02 2.751983702182769775e-02 3.652021521702408791e-03 4.381910338997840881e-02 -2.702112682163715363e-02 -2.531796135008335114e-02 4.866665229201316833e-02
-1.673396378755569458e-01 1.544772982597351074e-01 7.381168007850646973e-02 6.274896115064620972e-02 -2.561184577643871307e-03 7.453311234712600708e-02 7.384891062974929810e-02 1.698856614530086517e-02 2.628617174923419952e-02 4.253440536558628082e-03
6.364867091178894043e-02 -9.179241955280303955e-02 -3.565146401524543762e-02 5.388525873422622681e-02 3.337053954601287842e-02 -1.159415319561958313e-01 1.095222905278205872e-01 -1.521874517202377319e-01 1.677253749221563339e-07 -2.303323894739151001e-02
-2.130393497645854950e-02 2.527789585292339325e-02 6.993931531906127930e-02 1.254765316843986511e-02 3.766278177499771118e-02 -6.655674427747726440e-02 -9.731854312121868134e-03 2.906578034162521362e-02 -9.666772931814193726e-02 -3.924731537699699402e-02
6.095663830637931824e-02 -6.386569887399673462e-02 7.330651581287384033e-02 8.868891745805740356e-03 4.101517796516418457e-02 -1.252520680427551270e-01 4.772358224727213383e-04 7.090704143047332764e-02 -8.032971620559692383e-02 3.371705859899520874e-02
4.480899870395660400e-02 -4.162076115608215332e-02 3.036987036466598511e-02 7.007414102554321289e-02 2.230856381356716156e-02 2.544703334569931030e-02 4.091824591159820557e-02 -1.880332827568054199e-01 9.577710926532745361e-02 -6.211148202419281006e-02
-1.046887114644050598e-01 1.047393679618835449e-01 3.208801150321960449e-02 3.925019502639770508e-02 -4.219638183712959290e-02 -3.269994631409645081e-02 5.139683187007904053e-02 4.557919874787330627e-02 8.539593219757080078e-02 2.956319786608219147e-02
1.547469943761825562e-02 3.653533011674880981e-02 1.388941612094640732e-02 -1.705248057842254639e-01 -5.363496765494346619e-02 -7.884834893047809601e-03 7.104377448558807373e-02 -1.200237870216369629e-01 4.190250858664512634e-02 1.516988873481750488e-02
-1.671200990676879883e-01 -1.691776444204151630e-03 -8.750316686928272247e-03 -8.282829076051712036e-02 3.000804781913757324e-02 -1.811235994100570679e-01 -1.428593993186950684e-01 -2.735508792102336884e-02 -1.126404479146003723e-01 2.043840475380420685e-02
-9.066820144653320312e-02 1.082011833786964417e-01 -1.056345030665397644e-01 -1.470262706279754639e-01 3.465926647186279297e-02 9.415517747402191162e-02 3.097891807556152344e-03 -1.085978001356124878e-02 4.841702803969383240e-02 -2.169406041502952576e-02
1.132442727684974670e-01 -2.215853706002235413e-02 5.465682968497276306e-02 -8.123033680021762848e-03 -1.966770738363265991e-03 2.280447259545326233e-02 -1.843179762363433838e-02 2.451176382601261139e-02 -9.282859973609447479e-03 -1.288626156747341156e-02
-7.146044075489044189e-02 -1.706579178571701050e-01 2.782786637544631958e-02 7.039270550012588501e-02 -7.886543124914169312e-02 1.117252111434936523e-01 2.070336230099201202e-02 -3.162838891148567200e-02 6.784673035144805908e-02 7.504723221063613892e-02
1.855704374611377716e-02 1.490113977342844009e-02 6.555149704217910767e-02 -6.871737539768218994e-02 -1.071781590580940247e-01 4.096013307571411133e-02 4.243370518088340759e-02 -1.691953837871551514e-01 1.122416779398918152e-01 4.853269830346107483e-02
4.355380311608314514e-02 7.568640261888504028e-02 4.101625457406044006e-02 3.045455180108547211e-02 -6.550995167344808578e-03 -7.473761588335037231e-02 -1.236511841416358948e-01 -8.114001899957656860e-02 8.783211559057235718e-02 8.265784382820129395e-02
5.478166416287422180e-02 -1.197919324040412903e-01 9.316751360893249512e-02 -2.628224156796932220e-02 7.628561556339263916e-02 -9.692793339490890503e-02 2.488853223621845245e-02 3.224629163742065430e-02 2.208521123975515366e-03 2.160941436886787415e-02
3.570429747924208641e-03 -1.323252450674772263e-02 -5.842986702919006348e-02 -7.686553895473480225e-02 -4.331069812178611755e-02 -1.143817305564880371e-01 -5.925647541880607605e-02 4.519752226769924164e-03 -1.378162354230880737e-01 -1.442408468574285507e-02
9.947109967470169067e-02 3.801270946860313416e-02 5.019858106970787048e-02 -4.832590371370315552e-02 1.056856587529182434e-01 -8.984760195016860962e-02 3.315078839659690857e-02 3.916134685277938843e-02 -3.085242211818695068e-02 7.831335067749023438e-02
-1.366735845804214478e-01 -1.941415132023394108e-03 2.295326627790927887e-02 4.731893911957740784e-02 -1.114970967173576355e-01 -7.968688011169433594e-02 -1.710678786039352417e-01 3.661894425749778748e-02 5.531420558691024780e-02 2.296027168631553650e-02
8.339713513851165771e-02 -1.586356945335865021e-02 1.273870468139648438e-01 1.258228272199630737e-01 -1.524310410022735596e-01 -1.231025531888008118e-01 -6.877535581588745117e-02 7.690247148275375366e-02 5.515657365322113037e-02 9.187832474708557129e-02
-8.564538508653640747e-02 8.767884969711303711e-02 8.119974285364151001e-02 1.849481835961341858e-02 -3.190816566348075867e-02 -7.548087742179632187e-03 2.032082760706543922e-03 -1.698867417871952057e-02 3.298965469002723694e-02 -1.051721572875976562e-01
-1.577144265174865723e-01 9.175935387611389160e-02 7.453915476799011230e-02 9.972310066223144531e-02 4.789745435118675232e-02 -6.360749900341033936e-02 -1.917674988508224487e-01 7.288771122694015503e-02 5.118139460682868958e-02 4.256961867213249207e-02
-2.995390444993972778e-02 -2.636965364217758179e-02 2.312955260276794434e-02 1.766698085702955723e-03 5.322613194584846497e-02 7.220831513404846191e-02 1.340272426605224609e-01 -2.426297217607498169e-02 7.041376084089279175e-02 -1.101984158158302307e-01
-1.413969695568084717e-01 -1.267158426344394684e-02 3.421574085950851440e-02 1.922248117625713348e-02 -6.771223992109298706e-02 9.323969483375549316e-02 -1.361241005361080170e-02 8.559063076972961426e-02 4.301568865776062012e-02 -1.845902204513549805e-02
-4.038886725902557373e-02 -2.989739365875720978e-02 -4.263034497853368521e-04 2.153234928846359253e-02 -4.089650139212608337e-02 -1.496403813362121582e-01 -1.396696120500564575e-01 -1.314175128936767578e-01 5.792200192809104919e-02 -5.149715021252632141e-02
-1.734056174755096436e-01 -2.628658711910247803e-02 4.898529499769210815e-02 3.056047111749649048e-02 -7.213226985186338425e-03 1.577497646212577820e-02 -6.814314424991607666e-02 4.011467099189758301e-02 -9.490673989057540894e-02 -1.089368686079978943e-01
8.252874761819839478e-02 8.794673532247543335e-02 7.955371588468551636e-02 -6.672638654708862305e-02 4.405965283513069153e-02 -9.804111719131469727e-02 7.424046844244003296e-02 -1.010636985301971436e-01 5.866261664777994156e-03 3.009344637393951416e-02
-1.196393743157386780e-01 -1.149537414312362671e-02 -1.171679422259330750e-02 -9.079348295927047729e-02 -3.158961981534957886e-02 -1.717299781739711761e-02 -4.353982582688331604e-02 -4.734397307038307190e-02 -8.139539510011672974e-02 -2.324134670197963715e-02
-3.616090118885040283e-02 -3.353244159370660782e-03 2.642120979726314545e-02 -9.950125962495803833e-02 -1.415229309350252151e-02 -2.203463762998580933e-02 -1.584128662943840027e-02 -7.240662723779678345e-02 -2.754008956253528595e-02 -4.679959267377853394e-03
1.754776202142238617e-02 3.981185331940650940e-02 5.725125595927238464e-02 9.724783152341842651e-02 4.045494645833969116e-02 9.405665099620819092e-02 1.530762482434511185e-02 -2.208945900201797485e-02 -1.227214187383651733e-01 -1.247574687004089355e-01
3.622241318225860596e-02 6.121969223022460938e-02 5.851944908499717712e-02 7.555279135704040527e-02 -5.404277145862579346e-02 7.142835110425949097e-02 -9.640496224164962769e-02 4.938526079058647156e-02 -3.314087539911270142e-02 -6.273121386766433716e-02
-1.413650661706924438e-01 -2.037128992378711700e-02 7.326865196228027344e-02 4.746459051966667175e-02 -1.753645017743110657e-02 -1.619094461202621460e-01 -1.831425726413726807e-01 3.412344679236412048e-02 2.231266163289546967e-02 -3.925366327166557312e-02
-1.225534677505493164e-01 1.320845447480678558e-02 -3.568392945453524590e-03 -1.677294820547103882e-01 2.774406783282756805e-02 -2.863381756469607353e-03 2.781474217772483826e-02 -4.152835905551910400e-02 -1.070249676704406738e-01 -8.786364644765853882e-02
6.974609196186065674e-02 -5.278490483760833740e-02 4.812000319361686707e-02 6.205397099256515503e-02 -1.518362108618021011e-02 8.188781328499317169e-03 -9.294610470533370972e-02 -6.871822290122509003e-03 -4.347332194447517395e-02 -1.684071123600006104e-02
-1.202291101217269897e-01 -9.715592861175537109e-02 5.036939401179552078e-03 1.107120811939239502e-01 -2.916010282933712006e-02 6.047036871314048767e-02 -8.955214172601699829e-02 1.075584664940834045e-01 4.636256769299507141e-02 -7.150692492723464966e-02
-7.865014672279357910e-02 2.008392475545406342e-02 -2.355630695819854736e-02 -2.714568376541137695e-02 4.947884008288383484e-03 1.184344068169593811e-01 2.816408872604370117e-02 -8.955504745244979858e-03 -7.447663694620132446e-02 2.524024993181228638e-02
1.875007525086402893e-02 2.398391813039779663e-02 6.042021792382001877e-03 6.929808109998703003e-02 4.553053900599479675e-02 2.138452231884002686e-02 -1.400802731513977051e-01 -1.001364141702651978e-01 3.269578516483306885e-02 3.858333081007003784e-02
8.035240322351455688e-02 -1.210644543170928955e-01 2.977824956178665161e-02 -5.781578272581100464e-02 2.266039513051509857e-02 -2.310888841748237610e-02 1.012334376573562622e-01 6.986856460571289062e-02 3.046933561563491821e-02 -3.900300711393356323e-02
9.349482506513595581e-02 1.745140366256237030e-02 2.562173455953598022e-02 -3.280273452401161194e-02 -8.305518329143524170e-02 5.703108012676239014e-02 8.175501227378845215e-02 7.069011032581329346e-02 1.288830954581499100e-02 -2.796147577464580536e-02
-9.006933309137821198e-03 1.393103152513504028e-01 -8.393372595310211182e-02 -9.730705618858337402e-02 9.337670356035232544e-02 8.301389962434768677e-02 6.137072667479515076e-02 4.438103362917900085e-02 6.996905803680419922e-02 1.340315770357847214e-02
6.322252098470926285e-03 -1.220912486314773560e-01 -1.322720497846603394e-01 -4.861166700720787048e-02 -4.878097213804721832e-03 -5.254858732223510742e-02 2.711229026317596436e-02 4.119939729571342468e-02 -1.293894350528717041e-01 -3.203719481825828552e-02
-6.027455627918243408e-02 -1.358201447874307632e-02 5.001458525657653809e-02 -1.730383001267910004e-02 2.484014630317687988e-02 -3.295177221298217773e-02 -5.868587642908096313e-02 -1.357355564832687378e-01 5.351720750331878662e-02 -1.374556776136159897e-02
-3.351901844143867493e-02 3.481338918209075928e-02 -8.358590304851531982e-02 -1.024058610200881958e-01 1.338823437690734863e-01 -9.025592356920242310e-02 5.643745884299278259e-02 2.667165361344814301e-02 -1.473368983715772629e-02 4.588383436203002930e-02
-8.391299843788146973e-02 6.524068117141723633e-02 -3.324437886476516724e-02 3.472590446472167969e-02 -2.084832787513732910e-01 9.721507877111434937e-02 8.029031008481979370e-02 -6.937630474567413330e-02 5.632622912526130676e-02 -1.917821727693080902e-02
-6.924227625131607056e-02 6.463774293661117554e-02 3.439110517501831055e-02 4.142655804753303528e-02 6.367096304893493652e-02 -4.126767441630363464e-02 -9.148503839969635010e-02 -3.407943993806838989e-02 -3.588454052805900574e-02 9.433091431856155396e-02
-4.156330972909927368e-02 6.425596773624420166e-02 -3.006868250668048859e-02 4.923174157738685608e-02 -4.416757449507713318e-02 6.782786548137664795e-02 -1.611942797899246216e-01 2.156558446586132050e-02 -1.644849181175231934e-01 5.595480278134346008e-02
8.422071486711502075e-02 -8.191811293363571167e-02 -4.073543474078178406e-02 1.197606101632118225e-01 -3.978205844759941101e-02 1.055989786982536316e-01 8.514766232110559940e-04 3.656738251447677612e-02 1.654121838510036469e-02 9.061563760042190552e-02
8.972706645727157593e-02 5.991234257817268372e-02 8.996639400720596313e-02 1.478341314941644669e-02 -5.627317726612091064e-02 -8.374902606010437012e-02 -8.361718058586120605e-02 9.333188086748123169e-02 -6.594741344451904297e-02 -2.134292572736740112e-02
-6.883658468723297119e-02 5.187064036726951599e-02 3.245724365115165710e-02 -3.914926201105117798e-02 -1.332874447107315063e-01 5.334585160017013550e-02 4.039811715483665466e-02 -8.296637237071990967e-02 7.004846632480621338e-02 2.595519274473190308e-02
6.238365545868873596e-02 -1.876581460237503052e-01 1.043060347437858582e-01 1.023993492126464844e-01 6.330049782991409302e-02 9.202595800161361694e-02 3.657479956746101379e-02 -9.215363860130310059e-02 -8.851032704114913940e-02 7.226120680570602417e-02
-1.128422468900680542e-02 7.740498334169387817e-02 4.965589568018913269e-02 -3.412768943235278130e-03 5.217665061354637146e-02 -1.263482272624969482e-01 -5.660191178321838379e-02 4.013303294777870178e-02 2.847253531217575073e-02 7.047921419143676758e-02
-5.190799757838249207e-02 -7.963384501636028290e-03 3.060445748269557953e-02 7.124523818492889404e-02 5.915988609194755554e-02 -3.534590452909469604e-02 -9.949356317520141602e-02 6.880045682191848755e-02 -1.118606105446815491e-01 2.297810977324843407e-03
7.334642112255096436e-02 5.427870154380798340e-02 -1.693058162927627563e-01 -2.473249472677707672e-02 7.748479396104812622e-02 9.233716875314712524e-02 6.736212223768234253e-02 4.042874276638031006e-02 3.509162738919258118e-02 7.243941724300384521e-02
-3.911891952157020569e-02 -8.298455178737640381e-02 -2.426092140376567841e-02 -4.999305307865142822e-02 6.648429483175277710e-02 6.592120230197906494e-02 -3.153458237648010254e-03 3.600348159670829773e-02 -1.258794590830802917e-02 6.401176750659942627e-02
-1.703964918851852417e-01 8.904442936182022095e-02 9.832267463207244873e-02 3.202553465962409973e-02 -2.417852357029914856e-02 -1.501737684011459351e-01 -8.756961673498153687e-02 5.117991939187049866e-02 2.738271467387676239e-02 -6.312717497348785400e-02
-1.109703183174133301e-01 7.040917128324508667e-02 -1.312932819128036499e-01 -3.868432715535163879e-02 -1.712011694908142090e-01 1.095533519983291626e-01 5.749769881367683411e-02 -1.352900564670562744e-01 5.253183469176292419e-02 -4.000360891222953796e-02
-9.493458271026611328e-02 1.748370751738548279e-02 3.006561426445841789e-03 -1.216433346271514893e-01 -3.007353749126195908e-03 5.245301499962806702e-02 -1.564242504537105560e-02 -7.077991962432861328e-02 2.248994261026382446e-02 -4.940813034772872925e-02
-1.294614225625991821e-01 5.012487247586250305e-02 -3.859509527683258057e-02 4.201362654566764832e-02 -1.292704977095127106e-02 4.514059424400329590e-02 -6.763508170843124390e-02 -5.463768914341926575e-02 -1.099598500877618790e-02 4.297193139791488647e-02
-4.248056188225746155e-02 -9.008762240409851074e-02 2.915766462683677673e-02 -3.818053752183914185e-02 9.490314126014709473e-02 7.608897238969802856e-02 8.128651231527328491e-02 4.730898886919021606e-02 -1.182790566235780716e-02 -6.198417395353317261e-02
6.549775600433349609e-02 -1.583170332014560699e-02 3.468485176563262939e-02 2.805811725556850433e-02 4.606372117996215820e-02 -5.557932704687118530e-02 -7.045843452215194702e-02 -1.014792695641517639e-01 -3.165053203701972961e-02 -2.113093249499797821e-02
-2.234531007707118988e-02 -2.558252587914466858e-02 -5.627145245671272278e-02 -1.094616279006004333e-01 6.534399464726448059e-03 -5.818693339824676514e-02 8.949310332536697388e-02 1.868356205523014069e-02 1.427519507706165314e-02 5.803280323743820190e-02
8.412400260567665100e-03 6.261870265007019043e-02 -4.651469737291336060e-02 3.659780696034431458e-02 4.493087530136108398e-02 -1.887507587671279907e-01 -7.049138844013214111e-02 6.708589848130941391e-03 6.710597127676010132e-02 5.690529197454452515e-02
-2.992614358663558960e-02 1.173231005668640137e-02 1.379053294658660889e-01 8.848343044519424438e-02 -4.049222543835639954e-02 -6.440488249063491821e-02 -3.554886579513549805e-02 1.038023084402084351e-01 7.872366160154342651e-02 -1.123947128653526306e-01
-4.685921594500541687e-02 8.366478979587554932e-02 3.545289486646652222e-02 1.890246570110321045e-02 -1.392007619142532349e-01 8.362539112567901611e-03 3.836549818515777588e-02 -1.106510087847709656e-01 1.227565295994281769e-02 -1.687693595886230469e-01
8.269438520073890686e-03 9.635476022958755493e-02 1.992958970367908478e-02 7.675821334123611450e-02 -2.732570469379425049e-02 -5.219731107354164124e-02 -8.406565524637699127e-03 2.261201664805412292e-02 -5.139368027448654175e-02 -2.181138284504413605e-02
-7.167001068592071533e-02 -1.243856027722358704e-01 4.636363685131072998e-02 -8.859025686979293823e-02 1.234764698892831802e-02 -1.689855009317398071e-02 -2.341293171048164368e-02 7.213263306766748428e-03 -5.486385151743888855e-02 1.930902525782585144e-02
7.250561565160751343e-02 -1.472467929124832153e-01 -5.771389696747064590e-03 -1.491450425237417221e-02 -5.085776746273040771e-02 -2.200367115437984467e-02 -1.938176527619361877e-02 -1.570284657645970583e-04 -6.290529668331146240e-02 4.651664942502975464e-02
4.483016580343246460e-02 -4.856565222144126892e-02 2.267336845397949219e-02 -1.111473143100738525e-01 -7.242832332849502563e-02 3.731817379593849182e-02 -1.945592649281024933e-02 5.353123322129249573e-02 -6.666415184736251831e-02 2.578777633607387543e-02
-1.627666801214218140e-01 8.159388601779937744e-02 1.024407427757978439e-02 8.056990802288055420e-02 -1.082065328955650330e-01 6.585057079792022705e-02 -4.529025405645370483e-02 8.060047402977943420e-03 -9.980691224336624146e-02 2.592889126390218735e-03
7.354813069105148315e-02 -1.202603280544281006e-01 -5.130687728524208069e-03 -4.624725133180618286e-02 -4.691177979111671448e-02 -7.110209017992019653e-02 2.568976953625679016e-02 -1.608066856861114502e-01 -1.499305106699466705e-02 7.226119935512542725e-02
8.019461482763290405e-02 4.722699522972106934e-02 6.165051087737083435e-02 2.020169794559478760e-02 -4.651936888694763184e-02 -1.810367256402969360e-01 -1.018119305372238159e-01 -8.140778541564941406e-02 -2.684376388788223267e-02 -8.788111805915832520e-02
2.103996276855468750e-02 -3.903687465935945511e-03 2.504231594502925873e-02 -1.458267495036125183e-02 -1.385204195976257324e-01 2.385075902566313744e-03 -1.023540496826171875e-01 8.919972926378250122e-02 -3.385430201888084412e-02 -1.475227996706962585e-03
-2.293399535119533539e-02 1.152188554406166077e-01 7.955447584390640259e-02 -2.593638002872467041e-02 8.068878203630447388e-02 -2.015272900462150574e-02 -9.142748266458511353e-02 -4.534921422600746155e-02 4.073845967650413513e-02 -9.370958060026168823e-02
-1.252044290304183960e-01 -7.329232990741729736e-02 5.435645580291748047e-02 6.607631593942642212e-02 -1.234656851738691330e-02 -1.633627898991107941e-02 -1.753277629613876343e-01 6.352546811103820801e-02 6.210581585764884949e-02 -3.911310434341430664e-02
4.229225590825080872e-02 -1.555318087339401245e-01 -4.891410842537879944e-02 3.764622658491134644e-02 -7.818877696990966797e-02 3.753343597054481506e-02 -5.261767283082008362e-02 1.855748891830444336e-02 -1.160954535007476807e-01 3.464227169752120972e-02
6.372964382171630859e-02 5.778738111257553101e-02 5.440301448106765747e-02 -1.251717805862426758e-01 2.460454776883125305e-02 -6.408418715000152588e-02 -1.218495443463325500e-01 -2.160576358437538147e-02 3.954203799366950989e-02 -1.517289783805608749e-02
6.000433862209320068e-02 -1.394357979297637939e-01 -1.380413323640823364e-01 -1.073670834302902222e-01 3.768900409340858459e-02 -6.674388051033020020e-02 4.480187594890594482e-02 -5.752272158861160278e-02 -1.126521378755569458e-01 -2.283308282494544983e-02
-7.381604611873626709e-02 8.514630049467086792e-02 3.483965247869491577e-02 -3.050611540675163269e-02 3.402929753065109253e-02 1.951227150857448578e-02 8.345634490251541138e-02 -7.940295338630676270e-02 4.376125708222389221e-02 -1.379718780517578125e-01
-9.323563426733016968e-02 1.308438628911972046e-01 -6.067410483956336975e-02 -3.088127076625823975e-02 1.986327953636646271e-02 2.637658501043915749e-03 6.779658049345016479e-02 -1.037435755133628845e-01 7.354367524385452271e-02 -1.575771719217300415e-01
6.903373450040817261e-02 -2.970348484814167023e-02 -6.143641099333763123e-02 -3.736666403710842133e-03 9.871601127088069916e-03 -6.062861531972885132e-02 -7.574237883090972900e-03 5.547914654016494751e-03 5.656648427248001099e-04 4.464278463274240494e-03
-1.372405737638473511e-01 4.428514093160629272e-02 -1.243803650140762329e-02 1.614131219685077667e-02 1.169594097882509232e-02 -7.560168206691741943e-02 -1.318448334932327271e-01 5.765295028686523438e-02 -1.333778649568557739e-01 -3.818896831944584846e-03
-1.884221881628036499e-01 5.306117609143257141e-02 3.633546456694602966e-02 8.855742961168289185e-02 1.057779714465141296e-01 1.515057682991027832e-02 -1.052592694759368896e-01 9.147179126739501953e-02 1.207196433097124100e-02 -5.395395681262016296e-02
-8.916877210140228271e-02 6.799294799566268921e-02 -1.271340399980545044e-01 2.241467684507369995e-02 -1.040592119097709656e-01 5.473517626523971558e-02 -5.102076381444931030e-02 -1.200402975082397461e-01 -9.721069037914276123e-02 1.177878305315971375e-02
-8.505685627460479736e-02 -7.376450300216674805e-02 -6.582558900117874146e-02 8.075355738401412964e-02 2.044321410357952118e-02 2.803445234894752502e-02 -1.101389601826667786e-01 8.846493810415267944e-02 -3.903644904494285583e-02 6.762695312500000000e-02
-9.754128009080886841e-02 -1.524493657052516937e-02 -6.518495827913284302e-02 7.070061564445495605e-02 5.084952712059020996e-02 8.855762332677841187e-02 -2.173053622245788574e-01 7.037901133298873901e-02 5.440891161561012268e-02 5.171591788530349731e-02
-1.977704465389251709e-01 2.779519371688365936e-02 2.232533181086182594e-03 1.093288213014602661e-01 4.999329894781112671e-02 7.994806766510009766e-02 -1.137447506189346313e-01 8.368187583982944489e-03 -2.394349873065948486e-02 7.595159113407135010e-02
-1.880859434604644775e-01 9.822304546833038330e-02 1.010333672165870667e-01 9.220597147941589355e-02 -6.841303408145904541e-02 4.768141359090805054e-02 -1.638172268867492676e-01 8.405858278274536133e-02 -3.005648963153362274e-02 4.006266966462135315e-02
-4.027840215712785721e-03 1.076615601778030396e-02 6.922090053558349609e-02 8.284968137741088867e-02 -5.101892352104187012e-02 4.331786930561065674e-02 -9.719507396221160889e-02 -1.400350779294967651e-01 2.719892002642154694e-02 3.262333199381828308e-02
-1.506856232881546021e-01 5.742977187037467957e-02 4.300003871321678162e-02 -5.753998085856437683e-02 9.210783988237380981e-02 1.894021779298782349e-02 1.037841886281967163e-01 5.613178014755249023e-02 8.208827674388885498e-02 -4.116403870284557343e-03
5.876566469669342041e-02 -1.272764354944229126e-01 -1.042532548308372498e-01 -5.925399065017700195e-02 2.837946824729442596e-02 -9.720618277788162231e-02 4.950356110930442810e-02 3.984753414988517761e-02 -1.036444604396820068e-01 2.203927189111709595e-02
4.705488681793212891e-02 -1.558322310447692871e-01 -4.086099565029144287e-02 4.754589870572090149e-02 4.313515033572912216e-03 -1.980572007596492767e-02 4.943350702524185181e-02 4.604098573327064514e-02 -1.167458742856979370e-01 -4.531074687838554382e-02
-1.313557624816894531e-01 1.164085511118173599e-02 -8.165127784013748169e-02 7.131288200616836548e-02 8.698177337646484375e-02 8.393837511539459229e-02 -4.460151493549346924e-02 -8.069685846567153931e-02 3.851341083645820618e-02 5.602969601750373840e-02
-4.281025752425193787e-02 4.403198510408401489e-02 1.648911833763122559e-02 -2.108533680438995361e-02 -1.214852407574653625e-01 -8.658806979656219482e-02 -1.568720638751983643e-01 3.145775198936462402e-02 1.967713469639420509e-03 -9.471437335014343262e-02
-5.848654359579086304e-02 1.394409537315368652e-01 4.825743660330772400e-02 5.702252313494682312e-02 3.063126467168331146e-02 7.497618347406387329e-02 6.948360800743103027e-02 3.111929260194301605e-02 -5.752056092023849487e-02 7.466929405927658081e-02
-1.072443202137947083e-01 -1.009199246764183044e-01 2.915817312896251678e-03 -8.575261384248733521e-02 4.530566558241844177e-02 5.550708621740341187e-03 -2.166082896292209625e-02 -9.128960967063903809e-02 -8.360668271780014038e-02 -1.392113324254751205e-02
-2.645832113921642303e-02 -1.749959439039230347e-01 4.461709037423133850e-02 3.000298514962196350e-02 -4.133533313870429993e-02 1.007541716098785400e-01 -1.752928495407104492e-01 2.573739923536777496e-02 -5.771528556942939758e-02 3.196827694773674011e-02
6.997298449277877808e-02 7.813961245119571686e-03 1.044726893305778503e-01 -1.062163859605789185e-01 7.729079574346542358e-02 8.307959139347076416e-02 7.127663493156433105e-02 1.396039221435785294e-02 -7.802587747573852539e-02 6.904129683971405029e-02
-3.167713433504104614e-02 -6.687463028356432915e-04 5.422374233603477478e-02 8.189731836318969727e-02 1.082894578576087952e-01 3.392310813069343567e-02 -1.583908349275588989e-01 -9.018335491418838501e-02 6.934177875518798828e-02 1.051562279462814331e-02
2.749059535562992096e-02 -1.207490041851997375e-01 5.660082772374153137e-02 1.977634802460670471e-02 -3.191714361310005188e-02 3.828879073262214661e-02 -2.109880596399307251e-01 4.090441018342971802e-02 6.752073764801025391e-03 4.225504398345947266e-02
7.823070883750915527e-02 -2.835676632821559906e-02 1.857987605035305023e-02 -2.475427836179733276e-02 1.106436476111412048e-01 6.442346423864364624e-02 6.153402850031852722e-02 7.064504176378250122e-02 7.666192948818206787e-03 -1.091405004262924194e-02
-1.113213598728179932e-02 2.311187610030174255e-02 4.368785023689270020e-02 1.277039013803005219e-02 -1.530287263449281454e-04 -3.690823167562484741e-02 8.986053057014942169e-03 -3.344245254993438721e-02 -1.169976592063903809e-01 -2.245360054075717926e-02
8.118504285812377930e-02 -7.334739901125431061e-03 4.070457443594932556e-02 1.144493184983730316e-02 -1.393537670373916626e-01 -9.936301037669181824e-03 7.338911760598421097e-03 -7.402097433805465698e-02 7.008828967809677124e-02 -1.197129040956497192e-01
3.512957319617271423e-02 3.017742186784744263e-02 7.142364978790283203e-02 5.119957029819488525e-02 -6.858258694410324097e-02 -1.012869738042354584e-02 1.012388318777084351e-01 4.685683920979499817e-02 -5.188075453042984009e-02 -8.469019085168838501e-02
7.407272607088088989e-02 -1.539217084646224976e-01 6.697985529899597168e-02 2.825458720326423645e-02 -2.373484708368778229e-02 9.749326109886169434e-02 7.731138914823532104e-02 -1.259098798036575317e-01 7.788056880235671997e-02 -3.790523484349250793e-02
-4.018459841609001160e-02 5.334565415978431702e-02 -6.229506805539131165e-02 -1.065650880336761475e-01 3.202542662620544434e-02 6.026554107666015625e-02 3.501618281006813049e-02 3.594764694571495056e-02 7.289811968803405762e-02 -1.071832999587059021e-01
7.995147258043289185e-02 1.913211308419704437e-02 7.069672644138336182e-02 1.481275539845228195e-02 -9.408336132764816284e-03 2.041773870587348938e-02 -1.053853854537010193e-01 5.472005344927310944e-03 6.032089516520500183e-02 -1.000930443406105042e-01
-9.916923195123672485e-02 -6.790772080421447754e-02 4.031095281243324280e-02 5.674248933792114258e-02 6.019774824380874634e-03 2.177911251783370972e-02 -1.966587752103805542e-01 6.878351420164108276e-02 2.987439371645450592e-02 2.601720206439495087e-02
6.305598467588424683e-02 8.118683099746704102e-02 2.020759508013725281e-03 5.277156829833984375e-02 -1.465866863727569580e-01 5.185009166598320007e-02 7.163111865520477295e-02 -1.406318396329879761e-01 2.856063842773437500e-02 -1.079184636473655701e-01
-7.914091460406780243e-03 3.745577856898307800e-02 2.179378643631935120e-02 -5.108491331338882446e-02 -1.198931038379669189e-02 -2.008173242211341858e-02 -5.885493755340576172e-02 -8.357216417789459229e-02 4.814889654517173767e-02 3.356584161520004272e-02
-9.699209034442901611e-02 -2.095161937177181244e-03 6.241619214415550232e-02 1.158592104911804199e-02 3.957245498895645142e-02 -1.663405448198318481e-01 -1.085297986865043640e-01 4.642416909337043762e-02 -5.359875038266181946e-03 -3.966459631919860840e-02
1.990579813718795776e-02 7.480797916650772095e-02 4.664345458149909973e-02 -5.711239948868751526e-02 -1.673186272382736206e-01 4.740459844470024109e-02 5.213864147663116455e-02 -1.840278208255767822e-01 9.360402822494506836e-02 -4.710412770509719849e-02
9.872475266456604004e-02 7.211192697286605835e-02 1.221004221588373184e-02 5.344162695109844208e-03 -6.474961340427398682e-02 -3.300894424319267273e-02 8.414465934038162231e-02 -1.751232892274856567e-01 1.001498624682426453e-01 2.573399245738983154e-02
1.195609010756015778e-02 -9.025374799966812134e-02 1.137957647442817688e-01 4.706992208957672119e-02 -8.379401266574859619e-02 8.298512548208236694e-02 4.872748255729675293e-02 3.452134877443313599e-02 8.100392669439315796e-02 -7.952552405185997486e-04
-1.177683547139167786e-01 -7.327213138341903687e-02 1.219854652881622314e-01 -7.037595659494400024e-02 -7.683970779180526733e-02 2.408893778920173645e-02 -1.444927752017974854e-01 6.457448750734329224e-02 5.791619420051574707e-02 7.812456041574478149e-02
7.519435137510299683e-02 -1.188123747706413269e-01 -4.448433220386505127e-02 1.604187302291393280e-02 3.200837643817067146e-03 3.909194469451904297e-02 -2.163393888622522354e-03 6.513327360153198242e-02 -1.579875648021697998e-01 -9.377548843622207642e-02
2.790319174528121948e-02 2.144707366824150085e-02 6.523580104112625122e-02 1.485493686050176620e-02 3.645768761634826660e-02 -1.051674857735633850e-01 3.597216680645942688e-02 -1.407623142004013062e-01 1.626530475914478302e-02 -1.153613850474357605e-01
-9.585347026586532593e-02 -1.304211182286962867e-04 5.725771188735961914e-02 8.611823432147502899e-03 8.989157527685165405e-02 4.826550185680389404e-02 -5.715173855423927307e-02 3.392635844647884369e-03 1.026870757341384888e-01 4.513388127088546753e-02
-1.091300919651985168e-01 1.071863174438476562e-01 3.449730202555656433e-02 -9.119240194559097290e-02 -4.204959422349929810e-02 -6.014496833086013794e-02 8.563706278800964355e-02 -7.015032321214675903e-02 3.609769418835639954e-02 -1.047909352928400040e-02
-1.375483442097902298e-02 -5.117254331707954407e-02 -5.965732038021087646e-02 5.301841348409652710e-02 3.653960675001144409e-02 5.990100279450416565e-02 -3.559923171997070312e-02 1.586998067796230316e-02 7.349799852818250656e-03 6.542972475290298462e-02
-8.725856244564056396e-02 1.226169019937515259e-01 7.382234185934066772e-02 8.855386823415756226e-02 -1.921620219945907593e-02 1.245516538619995117e-01 9.085845202207565308e-02 -2.869064360857009888e-02 -5.512154847383499146e-02 8.629737421870231628e-03
-8.490689215250313282e-04 1.400816068053245544e-02 -3.976483829319477081e-03 6.947995722293853760e-02 -9.805815666913986206e-02 -3.180354088544845581e-02 -1.409544348716735840e-01 3.534933924674987793e-02 5.236423015594482422e-02 9.842468798160552979e-02
-2.586705610156059265e-02 -1.331582069396972656e-01 -8.266122080385684967e-03 -6.740923970937728882e-02 3.371151909232139587e-02 1.009467616677284241e-02 -6.320416927337646484e-02 7.381261326372623444e-03 2.680276148021221161e-02 -3.036651015281677246e-02
-7.795371860265731812e-02 -9.392245113849639893e-02 1.185414418578147888e-01 -5.149798840284347534e-02 9.778083115816116333e-02 -1.510538626462221146e-02 -3.437096998095512390e-02 1.979342661798000336e-02 7.361974567174911499e-03 4.528562724590301514e-02
8.872320502996444702e-02 -1.441170722246170044e-01 -1.194705720990896225e-03 -7.455994933843612671e-02 -1.131942868232727051e-02 3.669963032007217407e-02 -7.341074943542480469e-02 7.746697962284088135e-02 2.264913916587829590e-02 4.159826040267944336e-02
8.716052770614624023e-02 -2.328875474631786346e-02 -2.507144212722778320e-02 -1.117179617285728455e-01 2.237415686249732971e-02 8.063937723636627197e-02 9.926935285329818726e-02 -1.358925923705101013e-02 1.579342223703861237e-02 -1.426860969513654709e-02
8.322193473577499390e-02 -1.675062254071235657e-02 -3.869832679629325867e-02 -9.190873056650161743e-02 4.658183827996253967e-02 -1.663274504244327545e-02 6.957118958234786987e-02 1.815137453377246857e-02 4.503643140196800232e-02 4.331078380346298218e-02
-4.507782310247421265e-02 -6.810664385557174683e-02 4.989282041788101196e-02 -3.682268038392066956e-02 3.616075962781906128e-03 5.557808652520179749e-02 -6.391987949609756470e-02 1.078559737652540207e-02 1.124762892723083496e-01 5.287579447031021118e-02
5.107882246375083923e-02 3.284273296594619751e-02 4.920693859457969666e-02 3.615187481045722961e-02 -9.987336397171020508e-02 -1.685815751552581787e-01 -7.306391000747680664e-02 6.518834084272384644e-02 2.114664949476718903e-02 7.521513104438781738e-02
3.782584890723228455e-02 6.678774952888488770e-02 -3.658628463745117188e-02 -1.687266975641250610e-01 2.276396751403808594e-02 2.800247073173522949e-02 -7.112638652324676514e-02 -5.119678564369678497e-03 1.806639693677425385e-02 1.302168145775794983e-02
-1.533988565206527710e-01 -1.070538908243179321e-01 4.240742698311805725e-02 -1.446820423007011414e-02 1.351288706064224243e-01 -2.633419819176197052e-02 -6.821118760854005814e-03 6.142620742321014404e-02 1.065245568752288818e-01 1.009727567434310913e-01
-1.344250701367855072e-02 4.291623830795288086e-02 -1.635088934563100338e-03 2.736814320087432861e-02 2.416320145130157471e-02 -1.237076446413993835e-01 -1.264873594045639038e-01 6.622751802206039429e-02 -3.151701530441641808e-03 7.734066247940063477e-02
1.691126823425292969e-02 4.199400544166564941e-02 -2.749042399227619171e-02 1.127636954188346863e-01 1.577169261872768402e-02 7.834944128990173340e-02 -9.559207409620285034e-02 1.114621106535196304e-02 1.339758466929197311e-02 9.253159910440444946e-02
-8.759422600269317627e-02 5.420485138893127441e-02 6.084657832980155945e-02 -1.135975047945976257e-01 -3.333732113242149353e-02 -3.639702126383781433e-02 2.995214052498340607e-02 4.714452475309371948e-02 1.966010592877864838e-02 -3.888782113790512085e-02
4.312441870570182800e-02 -9.726737439632415771e-02 -4.711903631687164307e-02 -6.389988213777542114e-02 -1.066348627209663391e-01 6.513069570064544678e-02 -3.526871325448155403e-03 -1.776988059282302856e-02 -7.804657518863677979e-02 -2.207949012517929077e-02
-7.780833542346954346e-02 4.836293403059244156e-03 -9.147207438945770264e-02 -1.706392914056777954e-01 8.712305873632431030e-02 6.150852143764495850e-02 9.855183959007263184e-02 6.284862011671066284e-02 -7.805345207452774048e-02 7.316396385431289673e-02
-7.449218630790710449e-02 5.722611024975776672e-02 2.197465859353542328e-02 -8.346364647150039673e-02 2.618742873892188072e-03 2.114846184849739075e-02 3.418475762009620667e-02 1.984431641176342964e-03 -4.470289871096611023e-02 -2.698184922337532043e-02
5.049724876880645752e-02 1.435170173645019531e-01 5.093288421630859375e-02 8.841834217309951782e-02 -2.597990334033966064e-01 9.357674419879913330e-02 -1.384871155023574829e-01 1.940173096954822540e-02 -6.752580404281616211e-02 3.336100280284881592e-02
-5.057495832443237305e-02 -4.612150043249130249e-02 -1.169376149773597717e-01 6.623001396656036377e-02 6.332857161760330200e-02 9.380763024091720581e-02 2.590346150100231171e-02 -3.675690665841102600e-02 -1.944539882242679596e-02 9.466424584388732910e-02
2.202625200152397156e-02 -6.050411146134138107e-03 -5.516479909420013428e-02 5.491103976964950562e-02 -1.282798349857330322e-01 1.059823483228683472e-01 -2.584392018616199493e-02 5.611186474561691284e-02 1.119586005806922913e-01 1.195950508117675781e-01
6.504791975021362305e-02 8.852026611566543579e-02 8.131957799196243286e-02 3.252277150750160217e-02 2.831259928643703461e-02 -3.159959800541400909e-03 -3.117147646844387054e-02 7.172519713640213013e-02 -4.594807687681168318e-04 -3.701312094926834106e-02
7.211056351661682129e-02 -6.761553883552551270e-02 -2.412308752536773682e-02 4.971180856227874756e-02 4.877883195877075195e-02 4.988890886306762695e-02 2.839139476418495178e-02 -2.026007920503616333e-01 -1.285407808609306812e-03 7.679238170385360718e-02
2.224859595298767090e-02 5.927164107561111450e-02 5.131491273641586304e-02 9.084693342447280884e-02 -4.763748496770858765e-02 5.338547378778457642e-02 -9.759493917226791382e-02 5.109225958585739136e-02 -8.711274713277816772e-02 -2.276246696710586548e-01
-1.457901149988174438e-01 -1.921937316656112671e-01 4.035935178399085999e-02 1.615944504737854004e-02 5.701193585991859436e-02 5.188087373971939087e-02 2.502004802227020264e-02 5.645758658647537231e-02 5.363739281892776489e-02 4.625949636101722717e-02
6.365635246038436890e-02 -1.702423989772796631e-01 5.055171996355056763e-02 -3.207390010356903076e-02 4.136988893151283264e-02 1.387391984462738037e-02 -2.576582878828048706e-02 -2.747173234820365906e-02 3.411084040999412537e-02 5.096458829939365387e-03
-6.057262793183326721e-02 -1.116481423377990723e-01 -9.352175891399383545e-02 2.334576845169067383e-02 4.620301723480224609e-02 6.559750437736511230e-02 9.985782206058502197e-02 -2.437411695718765259e-01 -7.281174417585134506e-03 2.518668770790100098e-02
5.013392865657806396e-02 -7.579505443572998047e-02 -1.771503314375877380e-02 -8.106343448162078857e-02 8.003067225217819214e-02 6.033315137028694153e-02 5.485220998525619507e-02 -3.484515473246574402e-02 6.309992074966430664e-02 -1.098223775625228882e-02
-5.562206357717514038e-02 2.968419529497623444e-02 -3.003877587616443634e-02 -1.372577697038650513e-01 -5.096580833196640015e-02 -3.257202729582786560e-02 -1.058793887495994568e-01 1.282872725278139114e-02 -4.902964830398559570e-02 5.185718182474374771e-03
-1.507480144500732422e-01 -6.676989793777465820e-02 4.800093919038772583e-02 9.440731257200241089e-02 -1.599974930286407471e-01 5.959575623273849487e-02 -1.333621740341186523e-01 1.546023692935705185e-02 3.584347665309906006e-02 3.463451936841011047e-02
-4.485717415809631348e-02 6.409364193677902222e-02 4.831112921237945557e-02 -5.037100240588188171e-02 6.644231732934713364e-03 4.398410394787788391e-02 1.661100611090660095e-02 -4.765200242400169373e-02 -6.327518727630376816e-03 5.930170789361000061e-02
2.929346635937690735e-02 1.082553043961524963e-01 3.560401126742362976e-02 6.336004287004470825e-02 -1.335015296936035156e-01 8.536810427904129028e-02 -7.935932278633117676e-02 7.711977511644363403e-02 -1.322179585695266724e-01 4.006659239530563354e-02
2.508458122611045837e-02 -8.742646127939224243e-02 -5.334459617733955383e-02 5.651295557618141174e-02 9.445346891880035400e-03 1.982441172003746033e-02 7.502577453851699829e-02 -1.328297108411788940e-01 -8.164369314908981323e-02 -1.844383543357253075e-03
-7.792334258556365967e-02 1.005071103572845459e-01 6.904386729001998901e-02 1.067427769303321838e-01 -6.064195651561021805e-03 8.034905046224594116e-02 3.618761897087097168e-02 3.980687260627746582e-02 9.225486963987350464e-02 -6.664171814918518066e-02
5.883541703224182129e-02 4.546689987182617188e-02 -8.874255418777465820e-02 -4.984889551997184753e-02 8.129907399415969849e-02 3.121879138052463531e-02 6.671392172574996948e-02 -1.402890309691429138e-02 8.136367052793502808e-02 -1.071394681930541992e-01
3.124459087848663330e-02 5.789782386273145676e-03 -7.027295976877212524e-02 -7.057246565818786621e-02 6.665678322315216064e-02 9.730071574449539185e-02 -4.167479276657104492e-02 -1.337288226932287216e-02 -4.183271899819374084e-02 1.717097125947475433e-02
6.347280740737915039e-02 -1.713137477636337280e-01 6.835223734378814697e-02 6.039485335350036621e-02 -1.441742777824401855e-01 3.228513523936271667e-02 8.448770269751548767e-03 -1.147275697439908981e-02 3.045866265892982483e-02 -1.315638329833745956e-02
-6.955028325319290161e-02 -1.207498610019683838e-01 -6.259533017873764038e-02 2.335952129215002060e-03 9.822994470596313477e-02 -2.896464243531227112e-02 1.530880946666002274e-02 -1.182860210537910461e-01 -4.870796576142311096e-02 8.366704732179641724e-02
6.718334555625915527e-02 -8.329642564058303833e-02 -5.430655088275671005e-03 -6.954851001501083374e-02 -1.804650179110467434e-03 3.553305938839912415e-02 1.010813936591148376e-01 -7.958154194056987762e-03 2.049265429377555847e-02 -2.029797434806823730e-02
-1.442224085330963135e-01 -1.328779160976409912e-01 8.765074610710144043e-02 1.110578104853630066e-01 1.170134358108043671e-02 1.459348853677511215e-02 -1.050923019647598267e-01 1.056448221206665039e-01 6.245719641447067261e-02 -1.407843679189682007e-01
-1.254097819328308105e-01 5.469920113682746887e-02 -3.364954516291618347e-02 -3.489235788583755493e-02 7.204777747392654419e-02 8.293858915567398071e-02 -1.232087984681129456e-01 -5.552829429507255554e-02 3.660534508526325226e-03 5.135310441255569458e-02
-1.682588458061218262e-01 3.788765147328376770e-02 -7.831761240959167480e-02 -3.862572088837623596e-02 7.027427107095718384e-02 -6.900288164615631104e-02 -7.141670584678649902e-02 -1.088350266218185425e-02 -1.756829209625720978e-02 2.044453471899032593e-02
-4.547755792737007141e-02 1.290115993469953537e-02 -4.980831593275070190e-02 1.898394711315631866e-02 -1.657804399728775024e-01 -1.297292709350585938e-01 -4.103692620992660522e-02 5.956818535923957825e-02 5.424842983484268188e-02 -8.293774724006652832e-02
-9.883385896682739258e-02 -5.938261374831199646e-02 -5.428509041666984558e-02 4.414175450801849365e-02 1.801476441323757172e-02 8.521416783332824707e-02 9.712892025709152222e-02 -8.071075193583965302e-03 7.887650281190872192e-02 1.332880556583404541e-02
-5.906525999307632446e-03 4.173097014427185059e-02 1.590388454496860504e-02 -3.721890971064567566e-02 -2.350984141230583191e-02 -1.069993078708648682e-01 -1.241590157151222229e-01 1.213674433529376984e-02 -1.599817276000976562e-01 -8.475503325462341309e-02
1.034339070320129395e-01 -1.590550690889358521e-02 2.803817205131053925e-02 -6.835717707872390747e-02 1.432592794299125671e-02 6.213141605257987976e-02 7.474209368228912354e-02 1.269553229212760925e-02 -8.181291073560714722e-02 2.122929133474826813e-02
8.804835379123687744e-02 -9.878947585821151733e-02 -9.365534060634672642e-04 -8.963862061500549316e-02 -7.939194887876510620e-02 -1.506985817104578018e-02 -3.531141206622123718e-03 -7.551339268684387207e-02 -7.558641582727432251e-02 1.248169317841529846e-02
8.269650489091873169e-02 -2.943740598857402802e-02 6.522343307733535767e-02 2.411175332963466644e-02 4.072931408882141113e-02 3.398804366588592529e-02 -1.616610735654830933e-01 -7.013611495494842529e-02 -2.787398174405097961e-02 -3.962761908769607544e-02
1.295017637312412262e-02 -2.147743105888366699e-02 -1.276340568438172340e-03 -1.119134053587913513e-01 8.081469684839248657e-02 -1.264800578355789185e-01 -5.023905262351036072e-02 9.040871635079383850e-03 -8.864653110504150391e-02 7.130416482686996460e-02
-4.282787442207336426e-02 -1.332247816026210785e-02 -3.859692439436912537e-02 2.063599973917007446e-02 5.255301296710968018e-02 -1.320833805948495865e-02 -2.263462729752063751e-02 -8.693091571331024170e-02 7.581637799739837646e-02 -3.701005131006240845e-02
1.103869825601577759e-01 -4.381877183914184570e-02 -1.513696610927581787e-01 5.304299294948577881e-02 -1.248355358839035034e-01 2.010574191808700562e-02 5.266853421926498413e-02 -9.757928550243377686e-02 7.236055284738540649e-02 7.003830373287200928e-02
1.268155574798583984e-01 -1.809155195951461792e-01 5.603144876658916473e-03 -8.974191546440124512e-02 6.422872841358184814e-02 2.156388014554977417e-03 1.071467623114585876e-01 3.429377824068069458e-02 -7.975219190120697021e-02 -5.031896010041236877e-02
4.239753633737564087e-02 2.749998494982719421e-02 5.071067437529563904e-02 -7.881105691194534302e-02 1.647061854600906372e-02 7.570905983448028564e-02 -1.297297626733779907e-01 1.112848892807960510e-01 9.035641700029373169e-02 9.130005538463592529e-02
-1.217279732227325439e-01 1.010441258549690247e-01 8.685626834630966187e-02 8.147150278091430664e-02 2.423061616718769073e-02 -1.264319121837615967e-01 1.461448520421981812e-02 1.051987484097480774e-01 2.311256341636180878e-02 -6.793008744716644287e-02
3.549629822373390198e-02 -1.703560650348663330e-01 -1.284962445497512817e-01 -7.271544635295867920e-02 7.015749067068099976e-02 2.852351404726505280e-02 3.982573747634887695e-02 3.024135483428835869e-03 -1.293154060840606689e-01 5.682986602187156677e-02
-3.327275440096855164e-02 1.159748621284961700e-02 4.120460897684097290e-02 4.104675259441137314e-03 -1.598092466592788696e-01 -5.526884272694587708e-02 -1.017486751079559326e-01 -1.039468795061111450e-01 -8.283310383558273315e-02 -9.519148617982864380e-03
-8.616580069065093994e-02 2.074643410742282867e-02 6.165736541152000427e-02 -8.831822872161865234e-02 4.597606509923934937e-02 -3.262918442487716675e-02 6.543677300214767456e-02 6.717619299888610840e-02 5.900796875357627869e-02 -1.272918656468391418e-02
4.070675745606422424e-02 7.207108289003372192e-02 7.763631641864776611e-02 9.306830912828445435e-02 -5.080835893750190735e-02 -4.344190284609794617e-02 -1.383161395788192749e-01 -5.109005048871040344e-02 4.172711074352264404e-02 8.104605972766876221e-02
-2.224681377410888672e-01 5.950674042105674744e-02 7.766130566596984863e-02 7.233383506536483765e-02 1.665830425918102264e-02 -5.647508800029754639e-02 -1.369771957397460938e-01 1.013343334197998047e-01 -5.756325274705886841e-02 9.327676147222518921e-03
7.606050372123718262e-02 -6.522125005722045898e-02 4.808425530791282654e-02 2.643688581883907318e-02 -1.093322411179542542e-01 -5.181837081909179688e-02 -4.167986288666725159e-02 8.961906284093856812e-02 -4.595181345939636230e-02 -1.639256440103054047e-02
-5.733019486069679260e-02 3.334897384047508240e-02 -1.064385101199150085e-02 1.841461285948753357e-02 7.653669454157352448e-04 8.223475515842437744e-02 3.859761357307434082e-02 4.224621132016181946e-02 -5.849524587392807007e-02 3.367586061358451843e-02
-5.664248764514923096e-02 3.261099755764007568e-02 1.219592243432998657e-01 -2.951431274414062500e-02 8.661375381052494049e-03 -9.049164364114403725e-04 -3.259552642703056335e-02 -3.660478442907333374e-02 9.142464399337768555e-02 6.316769868135452271e-02
3.664319962263107300e-02 -4.206534475088119507e-02 -8.802381902933120728e-02 4.214910790324211121e-02 2.605303376913070679e-02 2.472399920225143433e-02 6.437020003795623779e-02 6.903375685214996338e-02 -1.248378753662109375e-01 -1.856224052608013153e-02
-5.167556181550025940e-02 3.064410574734210968e-02 -8.851978927850723267e-02 6.709429621696472168e-02 -1.702848635613918304e-02 -3.558304905891418457e-02 -9.703023731708526611e-02 -1.249980702996253967e-01 5.589501187205314636e-02 -6.569620966911315918e-02
5.233580712229013443e-03 -1.596263982355594635e-02 7.904887944459915161e-02 1.122034117579460144e-01 -6.717135757207870483e-02 6.145126186311244965e-03 -1.812503784894943237e-01 8.299027383327484131e-02 -5.585025995969772339e-02 6.431229412555694580e-02
-9.435686469078063965e-02 5.051493272185325623e-02 6.204254180192947388e-02 1.712533179670572281e-03 -2.435592748224735260e-02 -4.111957922577857971e-02 2.713883528485894203e-03 1.233158037066459656e-01 1.475788000971078873e-02 -6.274511571973562241e-03
-1.223874688148498535e-01 8.579783886671066284e-02 -7.552336901426315308e-02 6.482431292533874512e-02 -1.672198064625263214e-02 6.710579246282577515e-02 -1.015402898192405701e-01 8.677900768816471100e-03 8.464410901069641113e-02 -1.058012694120407104e-01
-7.982591539621353149e-02 5.676122847944498062e-03 -4.726237803697586060e-02 -7.734341919422149658e-02 -6.346638500690460205e-02 -1.384993642568588257e-01 -5.557534471154212952e-02 -8.022661204449832439e-04 3.089510463178157806e-02 -7.059127558022737503e-03
-1.094297766685485840e-01 3.036098089069128036e-03 -1.239373534917831421e-02 1.915620453655719757e-02 1.988963969051837921e-02 -4.400108009576797485e-02 6.397113949060440063e-02 8.201234787702560425e-02 -2.319937571883201599e-02 -1.219046860933303833e-01
-1.221770644187927246e-01 1.019789353013038635e-01 8.223330229520797729e-02 -5.534929409623146057e-02 -8.634706586599349976e-02 -2.102333493530750275e-02 -2.988362498581409454e-02 3.946258872747421265e-02 -6.881383806467056274e-02 -6.528820842504501343e-02
8.076091110706329346e-02 -5.427104234695434570e-02 4.669795930385589600e-02 -8.046235889196395874e-03 -4.975801706314086914e-02 -5.366462469100952148e-02 4.093280062079429626e-02 -1.305708196014165878e-02 4.376823082566261292e-02 -8.893932215869426727e-03
-9.303404390811920166e-02 -3.337479382753372192e-02 5.375577509403228760e-02 3.869035467505455017e-02 3.855403512716293335e-02 3.078865632414817810e-02 1.532671228051185608e-02 3.713996708393096924e-02 8.268893510103225708e-02 -4.452472552657127380e-02
2.360803075134754181e-02 2.198346331715583801e-02 7.713077357038855553e-04 -4.276862367987632751e-02 3.544110059738159180e-02 -2.208776958286762238e-02 -2.389699816703796387e-01 5.312737822532653809e-02 7.813296467065811157e-02 1.863146014511585236e-02
8.798056840896606445e-02 -9.079442173242568970e-02 -1.692264154553413391e-02 -3.197977319359779358e-02 7.873225212097167969e-02 -7.524812966585159302e-02 3.370829671621322632e-02 -9.236052632331848145e-02 5.052589112892746925e-04 7.141350954771041870e-02
-5.825231224298477173e-02 7.832685112953186035e-02 1.498730015009641647e-02 2.537053637206554413e-02 2.167445421218872070e-02 7.399581372737884521e-02 5.605282261967658997e-02 1.059478074312210083e-01 5.497166886925697327e-02 -6.777673959732055664e-02
1.577503629960119724e-03 3.059125505387783051e-03 3.565695136785507202e-02 -8.458511531352996826e-02 -3.968591243028640747e-02 2.011016197502613068e-02 -1.368409395217895508e-01 2.370682172477245331e-02 5.642884597182273865e-02 3.287720680236816406e-02
8.031047880649566650e-02 1.110393032431602478e-01 1.275976840406656265e-02 -8.409310132265090942e-02 -6.160212308168411255e-02 -8.789899945259094238e-02 4.020886123180389404e-02 -5.698871240019798279e-02 6.324259191751480103e-02 -9.381227940320968628e-02
8.241440355777740479e-02 -4.093300923705101013e-02 -2.380790375173091888e-02 -7.446654886007308960e-02 8.365813642740249634e-02 -3.047591075301170349e-02 -9.554064273834228516e-02 -6.844704598188400269e-02 2.945038489997386932e-02 6.246343627572059631e-02
2.247412316501140594e-02 -2.159928530454635620e-01 3.057641675695776939e-03 7.578582316637039185e-02 3.748796507716178894e-02 -7.916624099016189575e-02 9.425704926252365112e-02 -1.332962960004806519e-01 9.742714464664459229e-03 6.417430937290191650e-02
-3.377909585833549500e-02 -1.698942035436630249e-01 -8.134520798921585083e-02 -2.552252449095249176e-02 -2.058420516550540924e-02 1.039284765720367432e-01 -6.491351127624511719e-02 -7.717201113700866699e-02 4.245015233755111694e-02 2.426320686936378479e-02
-1.182850673794746399e-01 5.818197503685951233e-02 4.730753973126411438e-02 7.216593623161315918e-02 -8.422778546810150146e-02 3.078641556203365326e-02 -2.378606945276260376e-01 8.428256958723068237e-02 2.960835583508014679e-02 6.270100921392440796e-02
4.107011109590530396e-02 4.958238452672958374e-03 5.261861905455589294e-02 3.907240927219390869e-02 1.143927797675132751e-01 -8.022653311491012573e-02 -6.251285318285226822e-03 -1.076943650841712952e-01 -7.317078858613967896e-02 4.865437373518943787e-02
1.365051139146089554e-02 9.202198684215545654e-02 -8.313422650098800659e-02 -9.920535981655120850e-02 -3.907605260610580444e-02 5.412718281149864197e-02 -6.304752826690673828e-02 9.314299374818801880e-02 8.484971523284912109e-02 -1.941921375691890717e-02
3.070810809731483459e-02 3.201537579298019409e-02 -4.940139595419168472e-03 -6.148197874426841736e-02 -1.387730091810226440e-01 3.173901140689849854e-02 -3.467284142971038818e-02 5.190704017877578735e-02 -3.408448025584220886e-02 -1.351329982280731201e-01
-3.000659868121147156e-02 -3.721035644412040710e-02 -6.236355006694793701e-02 1.570242457091808319e-02 -4.719723388552665710e-02 7.251892238855361938e-02 2.986931428313255310e-02 1.943401060998439789e-02 -9.588038176298141479e-02 7.547426223754882812e-02
1.122564449906349182e-02 -1.407246887683868408e-01 9.197294712066650391e-02 6.755848973989486694e-02 6.310814619064331055e-02 9.310268610715866089e-02 7.674473524093627930e-02 1.820433884859085083e-02 -7.216490805149078369e-02 -6.282451003789901733e-02
3.431065939366817474e-03 -5.616389214992523193e-02 -1.126651167869567871e-01 2.950111171230673790e-03 1.958144269883632660e-02 -8.949936181306838989e-02 -1.096210479736328125e-01 4.237278923392295837e-02 9.170626848936080933e-02 1.011168137192726135e-01
8.218415826559066772e-02 -6.588503718376159668e-02 7.005839794874191284e-02 6.884688045829534531e-03 8.945025503635406494e-02 -1.861409693956375122e-01 -3.892041370272636414e-02 2.906361781060695648e-02 5.854125320911407471e-02 5.390073359012603760e-02
-1.683169975876808167e-02 -8.360831439495086670e-02 -2.175870351493358612e-03 2.237308397889137268e-02 -1.050607673823833466e-02 1.032036021351814270e-01 9.818271547555923462e-02 -1.066356822848320007e-01 1.081938147544860840e-01 1.750264130532741547e-02
-8.243849128484725952e-02 3.931283578276634216e-02 8.466966450214385986e-02 4.714312776923179626e-02 3.093971870839595795e-02 -6.098121777176856995e-02 -6.548821926116943359e-02 -5.681154504418373108e-02 7.872048765420913696e-03 -5.127336084842681885e-02
-1.461703479290008545e-01 3.511673584580421448e-02 -1.220359951257705688e-01 -8.474827557802200317e-02 2.240304276347160339e-02 -2.950269728899002075e-02 -6.376964598894119263e-02 -2.262637205421924591e-02 6.631176918745040894e-03 3.839752078056335449e-02
1.238073315471410751e-02 -1.158285513520240784e-01 -7.209037989377975464e-02 -5.687003955245018005e-02 -9.292248636484146118e-02 -8.814828842878341675e-02 -3.283678367733955383e-02 -2.857671305537223816e-02 -7.051870226860046387e-02 -1.956161484122276306e-02
6.643342971801757812e-02 -7.983041554689407349e-02 8.092266507446765900e-04 4.065349232405424118e-03 4.697043448686599731e-02 -1.946243457496166229e-02 9.625426679849624634e-02 2.203395776450634003e-02 -5.722736194729804993e-02 -1.046599633991718292e-02
1.184486895799636841e-01 -1.179763302206993103e-01 -4.246488213539123535e-03 5.692543834447860718e-02 -3.826557472348213196e-02 8.421756327152252197e-02 -6.317193154245615005e-03 5.684609711170196533e-02 3.939251974225044250e-02 4.238260909914970398e-02
-1.297310441732406616e-01 5.978138744831085205e-02 3.897093981504440308e-02 7.397744059562683105e-02 -1.437616162002086639e-02 6.092851981520652771e-02 -1.719664484262466431e-01 1.621243543922901154e-02 -1.006839647889137268e-01 2.239276841282844543e-02
1.526858005672693253e-02 9.714438021183013916e-02 -9.275196492671966553e-02 -8.162882924079895020e-02 1.281699240207672119e-01 -4.387020692229270935e-02 -1.474831253290176392e-01 7.060098648071289062e-02 7.125878334045410156e-02 7.809862494468688965e-02
9.219197183847427368e-02 -3.794554993510246277e-02 -3.151004388928413391e-02 -1.190003603696823120e-01 -4.678460955619812012e-02 -3.784458711743354797e-02 -2.622345648705959320e-02 1.005481742322444916e-02 3.894457593560218811e-02 5.240161716938018799e-02
2.643443644046783447e-02 3.087107837200164795e-02 8.712314814329147339e-02 6.340334564447402954e-02 4.934096336364746094e-02 -7.984584569931030273e-02 4.886988177895545959e-02 3.289168328046798706e-02 -9.969031810760498047e-02 -4.792966693639755249e-02
1.109596267342567444e-01 4.205348668619990349e-04 1.419049054384231567e-01 3.201825544238090515e-02 6.445560604333877563e-02 -1.525074616074562073e-02 6.924432516098022461e-02 5.434059351682662964e-02 -9.594531357288360596e-02 4.578624665737152100e-02
-2.637020684778690338e-02 -1.686789393424987793e-01 1.013196632266044617e-01 -9.400331974029541016e-02 1.028433442115783691e-01 5.667919758707284927e-03 8.454812318086624146e-02 6.732766050845384598e-03 9.667216241359710693e-02 7.768988609313964844e-02
-7.596439868211746216e-02 -1.082599982619285583e-01 3.406573832035064697e-02 -1.729647815227508545e-02 -8.281554281711578369e-02 -4.622186347842216492e-02 6.886863149702548981e-03 9.790541371330618858e-04 8.158121258020401001e-03 -5.455998331308364868e-02
5.824363231658935547e-02 1.250935019925236702e-03 -1.186751178465783596e-03 -2.106606215238571167e-02 -1.198979243636131287e-01 -2.733749151229858398e-02 -9.113135188817977905e-02 3.114714659750461578e-02 4.686751589179039001e-02 4.719866067171096802e-02
-5.061453208327293396e-02 -1.063271984457969666e-01 1.926549337804317474e-02 -1.449682265520095825e-01 5.084353685379028320e-02 -2.683472260832786560e-02 4.441605880856513977e-02 6.042555347084999084e-02 -1.251184791326522827e-01 7.263167947530746460e-02
7.079143077135086060e-02 4.475102573633193970e-02 3.225857391953468323e-02 -3.043388202786445618e-02 4.640533030033111572e-02 -3.190374234691262245e-03 -3.486675268504768610e-06 2.759728208184242249e-02 -2.070765793323516846e-01 1.458896137773990631e-02
-1.611967384815216064e-01 1.016633734107017517e-01 2.447008527815341949e-02 -1.216117292642593384e-01 3.705200552940368652e-02 -3.280571103096008301e-02 1.940568536520004272e-02 -3.062634356319904327e-02 8.526632154826074839e-05 -1.126125454902648926e-01
-8.754706359468400478e-04 -3.284751623868942261e-02 5.326418578624725342e-02 8.214815706014633179e-02 -8.419142663478851318e-02 2.979455143213272095e-02 -1.653895974159240723e-01 4.947880282998085022e-02 -7.886190712451934814e-02 3.863847814500331879e-03
-7.550153881311416626e-02 7.526928931474685669e-02 -3.036971017718315125e-02 3.817422688007354736e-02 -8.451385423541069031e-03 2.539286762475967407e-02 1.051995623856782913e-02 1.100929640233516693e-02 -1.841391921043395996e-01 -8.081778138875961304e-02
-6.181353330612182617e-02 -6.634934991598129272e-02 1.096023619174957275e-01 1.431072410196065903e-02 -3.099357150495052338e-02 5.916756018996238708e-02 2.107881754636764526e-02 -8.250921219587326050e-02 3.916027769446372986e-02 3.704899176955223083e-02
6.361052393913269043e-02 -6.143132224678993225e-02 1.334073580801486969e-02 -1.230951845645904541e-01 3.781624138355255127e-02 -6.281198561191558838e-02 -1.128881424665451050e-01 2.673534490168094635e-02 5.286955088376998901e-02 5.167008563876152039e-02
-7.653613388538360596e-02 -2.561398036777973175e-02 -1.075726095587015152e-02 1.712314225733280182e-02 -1.014416292309761047e-01 2.281113341450691223e-02 -2.133639901876449585e-02 4.890994355082511902e-02 4.130421206355094910e-02 4.178999736905097961e-02
4.316996410489082336e-02 -1.515122056007385254e-01 -6.882483512163162231e-02 -4.032447561621665955e-02 6.641232967376708984e-02 1.447846591472625732e-01 4.981150478124618530e-02 9.721400588750839233e-02 9.656398743391036987e-02 6.717754900455474854e-02
4.305753111839294434e-02 1.731331273913383484e-02 3.978282585740089417e-02 8.540730178356170654e-02 -1.577206552028656006e-01 4.457806795835494995e-02 -4.047431424260139465e-02 -1.679393462836742401e-02 7.042278349399566650e-02 7.549400627613067627e-02
1.065635532140731812e-01 6.985882669687271118e-02 -2.328533679246902466e-02 -6.767617166042327881e-02 3.652303665876388550e-02 -1.126255318522453308e-01 -2.469261921942234039e-02 6.110692396759986877e-02 5.862243846058845520e-02 3.994124382734298706e-02
-8.164004422724246979e-03 9.019116312265396118e-02 -7.991323620080947876e-02 -4.980603605508804321e-02 8.538839966058731079e-02 -5.146487057209014893e-02 -9.760623797774314880e-04 -1.953950338065624237e-02 -5.214863270521163940e-02 9.702934324741363525e-02
7.328927516937255859e-02 -8.554439991712570190e-03 7.599703967571258545e-02 8.003141731023788452e-02 -2.544655650854110718e-02 9.075008332729339600e-02 6.573170423507690430e-02 -4.873238503932952881e-02 4.182920604944229126e-02 -1.217764019966125488e-01
4.809232056140899658e-02 -1.203002184629440308e-01 -1.186951771378517151e-01 -9.502886980772018433e-02 -3.291361033916473389e-02 -1.248691976070404053e-01 4.080152604728937149e-03 5.936216562986373901e-02 -1.190285235643386841e-01 2.626605145633220673e-02
-2.269436232745647430e-02 -1.741953790187835693e-01 7.429192960262298584e-02 -5.443490296602249146e-02 9.274087846279144287e-02 3.250013664364814758e-02 7.839611917734146118e-02 -4.247270990163087845e-03 -8.196593075990676880e-02 1.034172326326370239e-01
9.281946718692779541e-02 2.997123450040817261e-02 5.747035145759582520e-02 -1.705021709203720093e-01 7.570217549800872803e-02 -4.619302228093147278e-02 5.774502083659172058e-02 6.314925104379653931e-02 1.111404877156019211e-02 -1.611166633665561676e-03
-4.025021940469741821e-02 6.080907210707664490e-02 1.179361622780561447e-02 -9.324028342962265015e-02 3.975382819771766663e-02 -1.423323899507522583e-01 3.830883279442787170e-02 -1.841266155242919922e-01 5.879827216267585754e-02 -2.976658754050731659e-03
5.121631175279617310e-02 3.492932394146919250e-02 -1.336142718791961670e-01 4.190291836857795715e-02 -8.746237307786941528e-02 5.078113079071044922e-02 6.806407868862152100e-02 -2.777080424129962921e-02 2.066939882934093475e-02 -9.640239924192428589e-02
-1.416039764881134033e-01 4.936148598790168762e-02 8.619860559701919556e-02 7.698294706642627716e-03 -1.491613313555717468e-02 -6.779217720031738281e-02 -1.020470727235078812e-02 4.272956773638725281e-02 4.037581756711006165e-02 -1.883878111839294434e-01
-1.581108430400490761e-03 -4.158738255500793457e-02 -1.995085552334785461e-02 1.440402772277593613e-02 -9.813559800386428833e-02 -5.508271232247352600e-02 3.520165383815765381e-02 6.685986369848251343e-02 4.802144598215818405e-03 -3.149705752730369568e-02
-2.923146076500415802e-02 -1.971126347780227661e-02 -7.031644135713577271e-02 4.567169025540351868e-02 -2.659178525209426880e-02 6.316036731004714966e-02 -5.712399631738662720e-02 7.938345521688461304e-02 3.025134839117527008e-02 3.794675692915916443e-02
-1.755164861679077148e-01 -4.586904495954513550e-02 7.397246360778808594e-02 7.934304326772689819e-02 -1.818021177314221859e-03 -5.489819496870040894e-02 -1.438153088092803955e-01 1.127322465181350708e-01 5.128110945224761963e-02 -1.539425179362297058e-02
9.605292975902557373e-02 -4.913616925477981567e-02 -3.993118647485971451e-03 5.518165882676839828e-03 -9.036332368850708008e-02 -7.725120056420564651e-03 2.483782544732093811e-02 -4.770879819989204407e-02 9.373079240322113037e-02 -1.374632120132446289e-01
-8.834486827254295349e-03 -1.519080251455307007e-01 5.100591108202934265e-02 -3.227289021015167236e-02 -1.152482181787490845e-01 4.472244903445243835e-02 4.591032862663269043e-03 -2.828147262334823608e-02 1.129714250564575195e-01 -7.191571593284606934e-02
4.242231696844100952e-02 4.536044597625732422e-02 5.493766069412231445e-02 3.247497603297233582e-02 -4.362358525395393372e-02 6.707257032394409180e-02 5.796215310692787170e-02 -4.746904969215393066e-02 -6.702944636344909668e-02 -1.784512889571487904e-03
-5.356838461011648178e-03 -9.069563448429107666e-02 -9.132520854473114014e-02 -6.063839048147201538e-02 -8.311154320836067200e-03 4.714548215270042419e-02 5.557160079479217529e-02 5.153753235936164856e-02 -1.413424015045166016e-01 3.221587464213371277e-02
-1.949802599847316742e-02 8.841793984174728394e-02 -1.220780238509178162e-01 -1.143794581294059753e-01 -6.723354011774063110e-02 -7.600679248571395874e-02 7.767842710018157959e-02 -5.513328686356544495e-02 8.442392945289611816e-02 -9.327995777130126953e-02
6.742131710052490234e-02 -1.775751076638698578e-02 1.160519942641258240e-01 -4.364795982837677002e-03 9.421620517969131470e-02 2.716545015573501587e-02 3.918996825814247131e-02 1.842581667006015778e-02 -4.030367732048034668e-02 6.005498766899108887e-02
1.926536485552787781e-02 -1.005330905318260193e-01 -1.166725307703018188e-01 -1.917908191680908203e-01 -8.922382444143295288e-02 1.102287881076335907e-02 4.487826675176620483e-02 1.975840888917446136e-02 4.228634759783744812e-02 -1.839503459632396698e-02
-8.416783809661865234e-02 4.388661310076713562e-02 7.824410684406757355e-03 -2.464624680578708649e-02 4.145630076527595520e-02 -1.232673525810241699e-01 -8.127986639738082886e-02 8.731915056705474854e-02 -1.702152192592620850e-02 8.431296795606613159e-03
-8.557756431400775909e-03 8.250058442354202271e-02 8.954081684350967407e-02 9.117998927831649780e-02 5.129748582839965820e-02 9.236217290163040161e-02 -1.445683985948562622e-01 -1.496705971658229828e-02 -7.536189258098602295e-02 9.839174896478652954e-02
-1.882980018854141235e-02 -1.093241348862648010e-01 -9.597194939851760864e-02 -1.561005562543869019e-01 6.103255972266197205e-02 2.034953981637954712e-02 1.056613214313983917e-02 -2.010574005544185638e-02 -4.307926073670387268e-02 -3.375165909528732300e-02
2.659790404140949249e-02 2.657182142138481140e-02 1.122513320297002792e-02 -2.179977484047412872e-02 -5.930201709270477295e-02 3.235786408185958862e-02 3.393338620662689209e-02 -6.236601993441581726e-02 -3.761074040085077286e-04 -2.436937764286994934e-02
1.180488392710685730e-01 7.738158572465181351e-03 -3.706206008791923523e-02 4.839071258902549744e-02 -4.473648220300674438e-02 1.032873764634132385e-01 1.398240774869918823e-01 -9.973818808794021606e-02 5.245845764875411987e-02 -7.566508650779724121e-02
-8.937757462263107300e-02 -1.134911924600601196e-01 2.292463183403015137e-02 8.802661672234535217e-03 -8.422787487506866455e-02 1.691618561744689941e-02 -1.355784088373184204e-01 5.802221130579710007e-03 6.425698101520538330e-02 3.842434659600257874e-02
-2.273645717650651932e-03 1.220570877194404602e-01 -5.931778997182846069e-02 6.738914549350738525e-02 1.673863269388675690e-02 8.448842167854309082e-02 -5.809317156672477722e-02 2.105439826846122742e-02 -4.234353452920913696e-02 -1.429565809667110443e-02
2.723518386483192444e-02 -9.457392990589141846e-02 -2.926149405539035797e-02 -6.211639940738677979e-02 -8.914798498153686523e-02 7.832881994545459747e-03 -9.466610848903656006e-02 -1.083313720300793648e-03 -4.620690643787384033e-02 -4.268928617238998413e-02
-1.099807843565940857e-01 -6.315861362963914871e-03 4.919236525893211365e-02 -8.613193035125732422e-02 2.985773235559463501e-02 -9.995908290147781372e-02 -1.771485991775989532e-02 -5.888198688626289368e-02 -4.740939289331436157e-02 -1.265924125909805298e-01
-1.847444474697113037e-01 6.924987584352493286e-02 2.453187666833400726e-02 6.308386800810694695e-04 7.428331673145294189e-02 2.086238376796245575e-02 1.729048788547515869e-02 -5.444818641990423203e-03 -4.833368211984634399e-02 -8.911645412445068359e-02
-7.420210540294647217e-02 8.031237870454788208e-02 2.576746046543121338e-02 -1.262056529521942139e-01 1.110413298010826111e-01 -6.079236045479774475e-02 5.354129150509834290e-02 -2.608062326908111572e-02 -3.659293055534362793e-02 -2.870343066751956940e-02
-2.348050475120544434e-02 4.232405871152877808e-02 -2.497761696577072144e-02 -1.380230188369750977e-01 4.897012934088706970e-02 2.196404710412025452e-02 5.448749288916587830e-03 -2.046768181025981903e-02 9.671483933925628662e-02 3.855063393712043762e-02
-6.599453091621398926e-02 4.735830053687095642e-02 -3.762982040643692017e-02 -1.178565025329589844e-01 6.573279201984405518e-02 -5.727813765406608582e-02 -1.882958970963954926e-02 -9.467368014156818390e-03 -7.882298529148101807e-02 -1.863767579197883606e-02
1.180584877729415894e-01 1.273932587355375290e-02 -5.277555435895919800e-02 2.776954509317874908e-02 2.025259658694267273e-03 7.160075474530458450e-03 -4.118042811751365662e-02 7.628805935382843018e-02 4.810956306755542755e-04 5.239527672529220581e-02
9.103127568960189819e-02 1.211761729791760445e-03 -6.153609603643417358e-02 5.279961600899696350e-02 -3.084132261574268341e-02 1.058512032032012939e-01 3.458357974886894226e-02 1.082852259278297424e-01 -1.131036505103111267e-01 5.111392587423324585e-02
-3.166155889630317688e-02 -7.819571346044540405e-02 -5.213925987482070923e-02 -8.936681784689426422e-03 -2.130646631121635437e-02 6.323973834514617920e-02 1.034598238766193390e-02 -1.650464087724685669e-01 6.355892121791839600e-02 -2.575834281742572784e-02
-1.274660974740982056e-01 -3.921781480312347412e-02 -1.168592497706413269e-01 5.605240166187286377e-02 -7.184904068708419800e-03 3.326383978128433228e-02 9.418264962732791901e-04 3.936723619699478149e-02 5.516754090785980225e-02 2.184391766786575317e-02
-1.225160062313079834e-02 4.277591407299041748e-02 -3.937047440558671951e-03 -1.208885833621025085e-01 1.796313747763633728e-02 -2.110330462455749512e-01 -8.993657678365707397e-02 7.396049052476882935e-02 -4.963670670986175537e-02 3.663261234760284424e-02
1.106908917427062988e-01 8.066619187593460083e-02 6.728841364383697510e-02 4.699331894516944885e-02 -7.746116071939468384e-02 -1.493441127240657806e-02 3.513896837830543518e-02 -7.649667561054229736e-02 6.723595410585403442e-02 -1.303377598524093628e-01
-4.023549333214759827e-02 4.497036337852478027e-02 7.099398970603942871e-02 3.246899228543043137e-03 -9.838790446519851685e-02 5.433813668787479401e-03 -3.218673169612884521e-02 -6.492453068494796753e-02 4.494855925440788269e-02 -1.469488628208637238e-02
-1.359370797872543335e-01 5.274467170238494873e-02 8.037956058979034424e-02 -5.794723331928253174e-02 -1.003099158406257629e-01 2.363839186728000641e-02 -9.580237418413162231e-02 3.073511645197868347e-02 -5.654266849160194397e-02 -9.396813809871673584e-02
6.681678444147109985e-02 -1.546028703451156616e-01 6.685744971036911011e-02 8.110140264034271240e-02 -7.510504871606826782e-02 4.891920089721679688e-02 -5.201271548867225647e-02 9.934429824352264404e-02 8.507137000560760498e-02 7.698705047369003296e-02
3.008402884006500244e-02 -1.453369706869125366e-01 -9.502005577087402344e-02 -6.709757447242736816e-02 -1.174276508390903473e-02 2.477623522281646729e-02 1.997517794370651245e-02 3.339476883411407471e-02 -7.620078325271606445e-02 6.481243669986724854e-02
-6.397562474012374878e-02 -9.126687049865722656e-02 4.689543694257736206e-02 -5.074444413185119629e-02 5.705445259809494019e-02 -6.467876583337783813e-02 8.176176249980926514e-02 3.172754496335983276e-02 4.160474985837936401e-02 -5.157485604286193848e-02
-2.900998480618000031e-02 -7.706882804632186890e-02 8.909774012863636017e-03 2.692769281566143036e-02 -7.316542416810989380e-02 2.873947471380233765e-02 -5.240071564912796021e-03 -4.921599105000495911e-02 -9.797183424234390259e-02 3.103232756257057190e-02
8.391369879245758057e-02 -4.623790085315704346e-02 7.486454397439956665e-02 -6.267452239990234375e-02 -8.416776545345783234e-03 -3.067107871174812317e-02 2.264275401830673218e-02 -1.380902677774429321e-01 7.133651524782180786e-02 4.718451574444770813e-02
-2.295943722128868103e-02 2.766545675694942474e-02 1.299817115068435669e-02 -6.924246996641159058e-02 7.035609334707260132e-03 -3.478357195854187012e-02 4.085979238152503967e-02 -8.991608023643493652e-02 -2.179152332246303558e-02 -6.176575273275375366e-02
-5.872917547821998596e-02 -4.137718304991722107e-02 -7.394884712994098663e-03 2.104450715705752373e-03 7.980722934007644653e-02 1.121938452124595642e-01 8.564026653766632080e-02 -5.358622968196868896e-02 1.338133513927459717e-01 1.071001738309860229e-01
-5.138211324810981750e-02 6.465364992618560791e-02 -9.378643333911895752e-02 -2.152970992028713226e-02 4.507525637745857239e-02 2.420101128518581390e-02 -3.445453941822052002e-02 9.887912310659885406e-03 1.101134121417999268e-01 8.363290876150131226e-02
-8.598808199167251587e-02 3.142507374286651611e-02 -1.181459501385688782e-01 -1.622332781553268433e-01 5.853200331330299377e-02 -2.668652124702930450e-02 1.151847559958696365e-02 -4.135818034410476685e-02 6.473561748862266541e-03 -3.992478549480438232e-02
-1.977607309818267822e-01 -1.375946030020713806e-02 -9.826853126287460327e-02 1.418912783265113831e-02 5.851066112518310547e-02 1.050305832177400589e-02 -1.052706688642501831e-01 -7.672911882400512695e-02 3.625260293483734131e-02 3.969939053058624268e-02
-1.432212721556425095e-02 4.305458068847656250e-02 1.321868747472763062e-01 4.478066787123680115e-02 -8.309648255817592144e-04 -1.007644087076187134e-01 -5.279831960797309875e-02 7.173468917608261108e-02 7.598052918910980225e-02 -8.892592042684555054e-02
5.730589851737022400e-02 2.279082685708999634e-02 2.756918780505657196e-02 -6.231955438852310181e-02 -3.969006985425949097e-02 1.541926059871912003e-02 -1.951396092772483826e-02 3.795976191759109497e-02 5.955304577946662903e-02 -8.643122017383575439e-02
4.848899319767951965e-02 -5.781090632081031799e-02 5.593667924404144287e-02 6.457713991403579712e-02 -1.108892932534217834e-01 -1.151496097445487976e-01 -2.143148034811019897e-01 5.612360686063766479e-02 5.842541158199310303e-02 3.706518560647964478e-02
-9.006995707750320435e-02 1.623915508389472961e-02 -1.228981986641883850e-01 -7.902172207832336426e-02 -4.445593338459730148e-03 -9.213966131210327148e-02 5.074152350425720215e-02 -9.457629173994064331e-02 -8.003621548414230347e-02 -7.753229886293411255e-02
-8.471163362264633179e-02 1.002741456031799316e-01 -1.347394436597824097e-01 -1.034687682986259460e-01 6.871558725833892822e-02 -8.726250380277633667e-03 -1.041336730122566223e-01 9.460426867008209229e-03 -9.855349548161029816e-03 -6.201266124844551086e-02
4.763422161340713501e-02 3.014245815575122833e-02 2.900067251175642014e-03 -3.998379036784172058e-02 -1.989221423864364624e-01 5.982871633023023605e-03 -1.080518402159214020e-02 -7.293822616338729858e-02 1.346809603273868561e-02 -1.582556813955307007e-01
6.790693849325180054e-02 -1.899826079607009888e-01 -1.243929564952850342e-01 -5.917572230100631714e-02 3.471439704298973083e-02 6.409848481416702271e-02 3.013564646244049072e-02 7.592750340700149536e-02 -6.036293879151344299e-02 4.211889579892158508e-02
-7.861444354057312012e-02 -7.526540011167526245e-02 -3.192281350493431091e-02 7.774643599987030029e-02 5.024026334285736084e-02 8.510645478963851929e-02 -1.228185445070266724e-01 -9.115655720233917236e-02 7.291320711374282837e-02 8.211611211299896240e-02
2.636131644248962402e-02 -1.852014660835266113e-01 -1.324346214532852173e-01 9.651584178209304810e-02 -1.241807863116264343e-01 3.532975912094116211e-02 1.028245612978935242e-01 6.619023531675338745e-02 6.083491072058677673e-02 7.407432887703180313e-03
-1.183260902762413025e-01 7.476909458637237549e-02 -1.706046424806118011e-02 -2.923740819096565247e-02 -4.540415480732917786e-02 2.285717427730560303e-02 -2.001642435789108276e-01 7.960503548383712769e-02 6.096810847520828247e-02 9.473627060651779175e-02
-1.595638990402221680e-01 2.979797311127185822e-02 -1.808273606002330780e-02 -5.924042314291000366e-03 -1.388746500015258789e-01 -1.256203651428222656e-01 -1.744130253791809082e-01 8.278515189886093140e-02 3.051368519663810730e-02 6.515322625637054443e-02
4.568684473633766174e-02 -3.504538536071777344e-02 -1.051013246178627014e-01 4.712109640240669250e-02 -1.368794403970241547e-02 9.875118732452392578e-02 1.001395732164382935e-01 -1.006812453269958496e-01 1.145206913352012634e-01 1.660774461925029755e-02
7.823505252599716187e-02 -2.669447064399719238e-01 8.239394985139369965e-03 -4.740689881145954132e-03 -1.974855735898017883e-02 5.003540590405464172e-02 -9.447352960705757141e-03 5.846916139125823975e-02 -2.304005622863769531e-02 1.838449575006961823e-02
-1.073535755276679993e-01 -5.553843080997467041e-02 -6.050258409231901169e-03 6.102684885263442993e-02 -1.431449353694915771e-01 -1.356681343168020248e-02 -4.087555035948753357e-02 -2.850645035505294800e-02 5.084485933184623718e-02 3.061783686280250549e-02
1.520596072077751160e-02 1.048578694462776184e-01 2.014854550361633301e-02 6.137625873088836670e-02 -1.530817244201898575e-02 1.904150471091270447e-02 -1.575849950313568115e-02 -8.631542325019836426e-02 -5.862457677721977234e-02 -1.095454245805740356e-01
7.207174599170684814e-02 -1.140768900513648987e-01 8.230645954608917236e-02 -1.094319149851799011e-01 1.107407212257385254e-01 -1.207006424665451050e-01 6.114636361598968506e-02 -4.052952304482460022e-02 1.519746030680835247e-03 5.694403871893882751e-02
-7.011836767196655273e-02 1.005621850490570068e-01 1.367066893726587296e-02 -9.807305037975311279e-02 8.400116860866546631e-02 -1.157465577125549316e-01 4.432677105069160461e-02 1.138827502727508545e-01 -8.230255544185638428e-02 8.723871409893035889e-02
-5.712083727121353149e-02 -3.732799552381038666e-03 2.866986952722072601e-02 3.677221760153770447e-02 -3.390029817819595337e-02 4.921068996191024780e-02 -9.999812394380569458e-02 -1.578472182154655457e-02 -7.695667445659637451e-03 1.152393072843551636e-01
-1.042633578181266785e-01 -2.228161692619323730e-02 1.100496947765350342e-01 2.529887668788433075e-02 7.342017441987991333e-02 -1.373731195926666260e-01 -1.409714967012405396e-01 -1.109829843044281006e-01 4.855590686202049255e-02 1.020056381821632385e-01
8.540958911180496216e-02 -1.184733659029006958e-01 4.372088611125946045e-02 8.688409626483917236e-02 -5.616968497633934021e-02 2.311987802386283875e-02 7.702866196632385254e-02 7.917778193950653076e-02 5.337404459714889526e-02 6.254971772432327271e-02
1.200933083891868591e-01 -5.711433291435241699e-02 -7.007119804620742798e-02 2.143611200153827667e-02 -7.151594012975692749e-02 -6.993192434310913086e-02 -2.976350113749504089e-02 -1.214434579014778137e-01 1.127836410887539387e-03 -4.582498967647552490e-02
1.746882125735282898e-02 1.004976872354745865e-02 5.531214177608489990e-03 4.083090648055076599e-02 -1.547517329454421997e-01 1.917392946779727936e-02 1.948695629835128784e-02 7.168842852115631104e-02 4.164623562246561050e-03 -1.649231165647506714e-01
-7.488373667001724243e-02 -7.456308603286743164e-02 -9.595312923192977905e-02 -1.267901808023452759e-01 8.136953413486480713e-02 -6.615090370178222656e-02 5.118573457002639771e-02 -8.994159102439880371e-02 1.462572906166315079e-02 7.416101545095443726e-02
